{"learner":{"attributes":{"scikit_learn":"{\"_estimator_type\": \"regressor\"}"},"feature_names":["SFE","Roughness","G_prime","G_double_prime","Thickness","Cross_Link","Material_Glass","Material_Metal","Material_Plastic","Material_Wood","Finish_Hairline","Finish_Matte","Finish_Mirror","Finish_Rough"],"feature_types":["float","float","int","float","int","int","i","i","i","i","i","i","i","i"],"gradient_booster":{"model":{"cats":{"enc":[],"feature_segments":[],"sorted_idx":[]},"gbtree_model_param":{"num_parallel_tree":"1","num_trees":"100"},"iteration_indptr":[0,1,2,3,4,5,6,7,8,9,10,11,12,13,14,15,16,17,18,19,20,21,22,23,24,25,26,27,28,29,30,31,32,33,34,35,36,37,38,39,40,41,42,43,44,45,46,47,48,49,50,51,52,53,54,55,56,57,58,59,60,61,62,63,64,65,66,67,68,69,70,71,72,73,74,75,76,77,78,79,80,81,82,83,84,85,86,87,88,89,90,91,92,93,94,95,96,97,98,99,100],"tree_info":[0,0,0,0,0,0,0,0,0,0,0,0,0,0,0,0,0,0,0,0,0,0,0,0,0,0,0,0,0,0,0,0,0,0,0,0,0,0,0,0,0,0,0,0,0,0,0,0,0,0,0,0,0,0,0,0,0,0,0,0,0,0,0,0,0,0,0,0,0,0,0,0,0,0,0,0,0,0,0,0,0,0,0,0,0,0,0,0,0,0,0,0,0,0,0,0,0,0,0,0],"trees":[{"base_weights":[-5.9068736E-7,3.1484196E1,-1.0300128E1,9.776265E0,6.6113976E1,-1.6515356E1,-1.8910942E0,3.0880785E1,5.4130325E0,1.0304794E2,4.9140854E1,-4.315937E0,-1.82376E1,7.735182E0,-8.200183E0,1.3744127E1,3.9144657E1,-6.023452E0,9.613712E0,2.141135E1,4.09634E1,2.5753931E1,6.740717E1,-1.1551258E1,7.9484515E0,-1.5036871E1,-1.9980246E1,-5.0890126E0,1.2427858E1,-1.4032904E1,-5.4402657E0,3.576212E0,5.2772756E0,5.4832845E0,1.3894836E1,-9.337909E0,3.0393064E-1,4.177302E0,1.8658596E1,9.330571E0,3.3130264E1,7.5942024E1,1.3742645E1,-1.3921518E1,-5.114188E0,1.3770259E1,1.4040573E0,-1.7873121E1,-1.2487916E1,-2.0229372E1,-4.075919E0,-1.0170381E1,-1.9956735E0,2.6153124E1,5.259028E0,-9.332398E0,-1.520946E1,-9.140441E0,-2.127053E0,1.9295907E0,-7.486588E-1,4.8495218E-1,-3.137449E0,-1.4439056E0,1.6132383E0,4.796823E-1,5.072764E0,8.099381E0,3.3162582E0,5.568279E0,4.213563E-1,1.2915544E1,6.0590634E0,1.2607364E1,2.41204E1,-4.274454E0,-9.122452E-1,3.4292793E-1,-2.2810667E0,4.679223E0,-6.751863E-1,-1.06256E0,2.4142618E0,-5.40513E0,-1.3419726E0,-4.974038E0,-3.0085094E0,-6.679568E0,-5.668639E0,4.5914242E-1,-1.7580409E0,-1.1308608E0,-3.5141041E0,4.4109526E-1,-1.4324766E0,5.6430726E0,1.2848473E1,2.5970942E-1,2.846404E0,-2.4879952E-1,-3.1730306E0,-4.7762203E0,-3.1074896E0,-1.7438374E0,-3.4909441E0,8.205905E-1,-1.6409782E0],"categories":[],"categories_nodes":[],"categories_segments":[],"categories_sizes":[],"default_left":[0,0,0,0,0,0,0,0,0,0,0,0,0,0,0,0,0,0,0,0,0,0,0,0,0,0,0,0,0,0,0,0,0,0,0,0,0,0,0,0,0,0,0,0,0,0,0,0,0,0,0,0,0,0,0,0,0,0,0,0,0,0,0,0,0,0,0,0,0,0,0,0,0,0,0,0,0,0,0,0,0,0,0,0,0,0,0,0,0,0,0,0,0,0,0,0,0,0,0,0,0,0,0,0,0,0,0],"id":0,"left_children":[1,3,5,7,9,11,13,15,17,19,21,23,25,27,29,31,33,35,37,-1,-1,39,41,43,45,47,49,51,53,55,57,59,-1,-1,-1,61,63,65,67,69,71,73,-1,75,77,79,81,83,85,87,89,91,93,95,97,99,101,103,105,-1,-1,-1,-1,-1,-1,-1,-1,-1,-1,-1,-1,-1,-1,-1,-1,-1,-1,-1,-1,-1,-1,-1,-1,-1,-1,-1,-1,-1,-1,-1,-1,-1,-1,-1,-1,-1,-1,-1,-1,-1,-1,-1,-1,-1,-1,-1,-1],"loss_changes":[3.249398E5,1.8503362E5,3.9428125E4,1.3921682E4,5.4490156E4,9.039797E3,1.9619465E4,3.1439844E3,6.2071567E3,2.1025656E4,2.6885938E4,4.972338E3,1.8191016E3,7.76626E3,3.0627334E3,3.282296E2,1.6974551E3,7.368523E2,4.544198E3,0E0,0E0,3.4463457E3,3.3417344E3,4.628164E2,7.807699E2,7.744668E2,8.8035156E2,5.29847E2,9.111506E3,2.0094434E2,1.6233257E3,8.540883E1,0E0,0E0,0E0,2.9915576E2,3.6337473E2,1.942611E3,1.9211084E3,7.786937E2,1.8251934E3,4.02375E2,0E0,4.553174E1,1.8003494E2,3.571018E2,3.8994296E2,4.095117E1,5.9866895E2,2.2832812E2,5.898391E1,8.4264404E1,2.2857619E2,3.1125762E3,1.1622839E3,1.4994275E2,7.128906E-1,4.5563428E2,1.1852672E3,0E0,0E0,0E0,0E0,0E0,0E0,0E0,0E0,0E0,0E0,0E0,0E0,0E0,0E0,0E0,0E0,0E0,0E0,0E0,0E0,0E0,0E0,0E0,0E0,0E0,0E0,0E0,0E0,0E0,0E0,0E0,0E0,0E0,0E0,0E0,0E0,0E0,0E0,0E0,0E0,0E0,0E0,0E0,0E0,0E0,0E0,0E0,0E0],"parents":[2147483647,0,0,1,1,2,2,3,3,4,4,5,5,6,6,7,7,8,8,9,9,10,10,11,11,12,12,13,13,14,14,15,15,16,16,17,17,18,18,21,21,22,22,23,23,24,24,25,25,26,26,27,27,28,28,29,29,30,30,31,31,35,35,36,36,37,37,38,38,39,39,40,40,41,41,43,43,44,44,45,45,46,46,47,47,48,48,49,49,50,50,51,51,52,52,53,53,54,54,55,55,56,56,57,57,58,58],"right_children":[2,4,6,8,10,12,14,16,18,20,22,24,26,28,30,32,34,36,38,-1,-1,40,42,44,46,48,50,52,54,56,58,60,-1,-1,-1,62,64,66,68,70,72,74,-1,76,78,80,82,84,86,88,90,92,94,96,98,100,102,104,106,-1,-1,-1,-1,-1,-1,-1,-1,-1,-1,-1,-1,-1,-1,-1,-1,-1,-1,-1,-1,-1,-1,-1,-1,-1,-1,-1,-1,-1,-1,-1,-1,-1,-1,-1,-1,-1,-1,-1,-1,-1,-1,-1,-1,-1,-1,-1,-1],"split_conditions":[1.2058E4,1.5E2,1.5E2,6.542E3,6.941E3,1.4673E4,2.1683E4,2.8281202E1,2.7121521E1,2E2,3.2263176E1,3.5418674E1,2.1984E4,2.763733E1,2.8084734E1,7.5E1,7.5E1,1E2,1E2,2.141135E1,4.09634E1,2.4458279E1,1.0556E4,1E2,1.3137E4,3.1437437E1,4.7132317E1,2.0971905E1,1.5792E4,2.571E4,2E2,2.7834595E1,5.2772756E0,5.4832845E0,1.3894836E1,1.0504474E3,2.3056763E1,4.0358383E1,2.1633884E3,7.603403E-1,9.252E3,6.5954395E-2,1.3742645E1,5.916446E3,1.2987E4,1E0,1E2,2.1832E4,7.5E1,7.5E1,8.472024E-3,1.3589E4,2E0,3.800128E1,2E2,3.4944949E3,2.7157463E1,2.7294E4,2.7463E4,1.9295907E0,-7.486588E-1,4.8495218E-1,-3.137449E0,-1.4439056E0,1.6132383E0,4.796823E-1,5.072764E0,8.099381E0,3.3162582E0,5.568279E0,4.213563E-1,1.2915544E1,6.0590634E0,1.2607364E1,2.41204E1,-4.274454E0,-9.122452E-1,3.4292793E-1,-2.2810667E0,4.679223E0,-6.751863E-1,-1.06256E0,2.4142618E0,-5.40513E0,-1.3419726E0,-4.974038E0,-3.0085094E0,-6.679568E0,-5.668639E0,4.5914242E-1,-1.7580409E0,-1.1308608E0,-3.5141041E0,4.4109526E-1,-1.4324766E0,5.6430726E0,1.2848473E1,2.5970942E-1,2.846404E0,-2.4879952E-1,-3.1730306E0,-4.7762203E0,-3.1074896E0,-1.7438374E0,-3.4909441E0,8.205905E-1,-1.6409782E0],"split_indices":[2,4,4,2,2,2,2,0,0,4,0,0,2,0,0,4,4,4,4,0,0,0,2,4,2,0,0,0,2,2,4,0,0,0,0,3,0,0,3,1,2,1,0,3,2,12,4,2,4,4,1,2,5,0,4,3,0,2,2,0,0,0,0,0,0,0,0,0,0,0,0,0,0,0,0,0,0,0,0,0,0,0,0,0,0,0,0,0,0,0,0,0,0,0,0,0,0,0,0,0,0,0,0,0,0,0,0],"split_type":[0,0,0,0,0,0,0,0,0,0,0,0,0,0,0,0,0,0,0,0,0,0,0,0,0,0,0,0,0,0,0,0,0,0,0,0,0,0,0,0,0,0,0,0,0,0,0,0,0,0,0,0,0,0,0,0,0,0,0,0,0,0,0,0,0,0,0,0,0,0,0,0,0,0,0,0,0,0,0,0,0,0,0,0,0,0,0,0,0,0,0,0,0,0,0,0,0,0,0,0,0,0,0,0,0,0,0],"sum_hessian":[1E3,2.46E2,7.54E2,1.52E2,9.4E1,4.33E2,3.21E2,2.5E1,1.27E2,2.8E1,6.6E1,5.4E1,3.79E2,1.27E2,1.94E2,9E0,1.6E1,3.4E1,9.3E1,1.6E1,1.2E1,3E1,3.6E1,3.4E1,2E1,1.37E2,2.42E2,3.4E1,9.3E1,6.1E1,1.33E2,3E0,6E0,5E0,1.1E1,2.2E1,1.2E1,5.9E1,3.4E1,1E1,2E1,2.4E1,1.2E1,2.4E1,1E1,1E1,1E1,6.2E1,7.5E1,2.38E2,4E0,1.2E1,2.2E1,3.1E1,6.2E1,1.4E1,4.7E1,6.2E1,7.1E1,2E0,1E0,2E0,2E1,6E0,6E0,5E1,9E0,1.5E1,1.9E1,4E0,6E0,1E1,1E1,4E0,2E1,2.3E1,1E0,3E0,7E0,9E0,1E0,6E0,4E0,6.1E1,1E0,2.6E1,4.9E1,8.8E1,1.5E2,1E0,3E0,3E0,9E0,1E1,1.2E1,2.3E1,8E0,3.1E1,3.1E1,2E0,1.2E1,3.9E1,8E0,2.8E1,3.4E1,2.9E1,4.2E1],"tree_param":{"num_deleted":"0","num_feature":"14","num_nodes":"107","size_leaf_vector":"1"}},{"base_weights":[1.4643866E-1,2.3275549E1,-7.0986514E0,7.3751607E0,4.8158146E1,-1.1464318E1,-1.1480585E0,2.4665464E1,4.297685E0,3.771574E1,8.2164696E1,-1.6901573E0,-1.2713082E1,1.5443162E1,-3.2108123E0,1.4980749E1,3.698997E1,-2.1300712E-1,1.0720844E1,1.7719828E1,4.7761112E1,9.526701E1,1.005932E1,-6.9997954E0,6.8897715E0,-1.0811099E1,-1.4578947E1,1.2610787E0,2.3404291E1,1.7680676E0,-6.2356234E0,7.24757E0,6.503568E0,3.6585538E0,1.269961E1,-7.5491138E0,3.1769845E0,2.4969218E0,1.464398E1,2.6181192E1,1.0795152E1,5.6421574E1,3.0192478E1,1.5836947E1,3.1508081E1,-9.594334E0,-1.8760368E0,3.3142695E0,1.1838741E1,-9.955163E0,-1.4913418E1,-1.4803953E1,-3.1129227E0,-1.1669766E0,4.5549593E0,1.6627668E1,3.4032E1,-1.1332561E0,7.7633786E0,-9.06652E0,-2.5016096E0,3.4234295E0,6.925535E-2,2.486681E-1,-2.5045285E0,-2.128747E0,1.4013519E0,2.5469809E0,-1.8166765E0,5.8731346E0,2.8378165E0,8.481934E0,7.8930306E-1,5.972744E0,1.0007521E0,1.7182137E1,4.6282654E0,3.5580058E0,1.0374954E1,-3.4683483E0,-1.4859291E0,5.002074E-1,-1.3935682E0,1.8912724E0,-4.4750813E-2,6.699177E-1,4.400538E0,-3.382153E0,-2.1707075E0,-4.6377635E0,-2.1684175E0,-4.8437476E0,-3.8638628E0,3.90271E-1,-1.3624816E0,5.4918E-1,2.8180432E0,6.2312627E0,3.3291905E0,1.416849E0,1.1263301E1,-1.379229E0,4.6549526E-1,3.104588E0,-3.4266344E-1,-1.5451521E0,-3.1015317E0,-1.1063162E0,1.549788E0],"categories":[],"categories_nodes":[],"categories_segments":[],"categories_sizes":[],"default_left":[0,0,0,0,0,0,0,0,0,0,0,0,0,0,0,0,0,0,0,0,0,0,0,0,0,0,0,0,0,0,0,0,0,0,0,0,0,0,0,0,0,0,0,0,0,0,0,0,0,0,0,0,0,0,0,0,0,0,0,0,0,0,0,0,0,0,0,0,0,0,0,0,0,0,0,0,0,0,0,0,0,0,0,0,0,0,0,0,0,0,0,0,0,0,0,0,0,0,0,0,0,0,0,0,0,0,0,0,0],"id":1,"left_children":[1,3,5,7,9,11,13,15,17,19,21,23,25,27,29,31,33,35,37,39,41,43,-1,45,47,49,51,53,55,57,59,61,-1,-1,-1,63,65,67,69,71,73,75,77,-1,-1,79,81,83,85,87,89,91,93,-1,95,97,99,101,103,105,107,-1,-1,-1,-1,-1,-1,-1,-1,-1,-1,-1,-1,-1,-1,-1,-1,-1,-1,-1,-1,-1,-1,-1,-1,-1,-1,-1,-1,-1,-1,-1,-1,-1,-1,-1,-1,-1,-1,-1,-1,-1,-1,-1,-1,-1,-1,-1,-1],"loss_changes":[1.6790528E5,9.420349E4,1.980829E4,7.7159375E3,2.9926344E4,5.3489805E3,1.1138033E4,2.0717676E3,3.652868E3,1.381693E4,1.0187078E4,2.371599E3,1.2264375E3,4.03508E3,4.363414E3,5.6801855E2,6.758506E2,1.889184E3,1.6411406E3,1.2407676E3,5.5998203E3,1.0888281E3,0E0,4.0740186E2,3.1466425E2,5.432656E2,4.5442578E2,2.5525336E2,1.0905869E3,1.922175E3,1.8800283E3,2.3109888E2,0E0,0E0,0E0,1.6763977E2,8.313202E2,9.740072E2,7.099824E2,4.6752783E2,1.0213323E3,1.9940625E2,1.038707E3,0E0,0E0,1.3443518E2,1.25493286E2,1.3556299E2,1.8469543E2,5.1371875E2,2.2488281E1,2.826875E2,3.7437965E1,0E0,1.0144107E2,1.3611475E2,6.462334E2,7.047074E2,8.406543E2,4.5479883E2,7.375231E2,0E0,0E0,0E0,0E0,0E0,0E0,0E0,0E0,0E0,0E0,0E0,0E0,0E0,0E0,0E0,0E0,0E0,0E0,0E0,0E0,0E0,0E0,0E0,0E0,0E0,0E0,0E0,0E0,0E0,0E0,0E0,0E0,0E0,0E0,0E0,0E0,0E0,0E0,0E0,0E0,0E0,0E0,0E0,0E0,0E0,0E0,0E0,0E0],"parents":[2147483647,0,0,1,1,2,2,3,3,4,4,5,5,6,6,7,7,8,8,9,9,10,10,11,11,12,12,13,13,14,14,15,15,16,16,17,17,18,18,19,19,20,20,21,21,23,23,24,24,25,25,26,26,27,27,28,28,29,29,30,30,31,31,35,35,36,36,37,37,38,38,39,39,40,40,41,41,42,42,45,45,46,46,47,47,48,48,49,49,50,50,51,51,52,52,54,54,55,55,56,56,57,57,58,58,59,59,60,60],"right_children":[2,4,6,8,10,12,14,16,18,20,22,24,26,28,30,32,34,36,38,40,42,44,-1,46,48,50,52,54,56,58,60,62,-1,-1,-1,64,66,68,70,72,74,76,78,-1,-1,80,82,84,86,88,90,92,94,-1,96,98,100,102,104,106,108,-1,-1,-1,-1,-1,-1,-1,-1,-1,-1,-1,-1,-1,-1,-1,-1,-1,-1,-1,-1,-1,-1,-1,-1,-1,-1,-1,-1,-1,-1,-1,-1,-1,-1,-1,-1,-1,-1,-1,-1,-1,-1,-1,-1,-1,-1,-1,-1],"split_conditions":[1.1483E4,1.5E2,1.5E2,6.244E3,3.765546E1,1.4103E4,1.4802E4,3.695051E1,3.383244E1,2.8738115E1,1.0098E4,3.5418674E1,2.4737E4,2.9352041E1,2.2942E4,5.869E3,1.0865605E3,7.5E1,7.5E1,8.409E3,9.252E3,2E2,1.005932E1,1E2,4.2586514E1,9.064217E3,4.7132317E1,2.155947E1,1E0,3.699364E1,3.4518925E1,2.323968E3,6.503568E0,3.6585538E0,1.269961E1,7.307E3,2.0652794E1,9.048E3,9.252E3,2.8212599E1,5.919879E-1,3.3510456E0,3.2263176E1,1.5836947E1,3.1508081E1,1E0,1.2987E4,1.2711E4,1E2,3.5706852E1,3.9551956E1,3.384962E1,8.472024E-3,-1.1669766E0,2E2,3.182036E3,1.238E4,2E2,2.129E4,2.571E4,4.5100124E1,3.4234295E0,6.925535E-2,2.486681E-1,-2.5045285E0,-2.128747E0,1.4013519E0,2.5469809E0,-1.8166765E0,5.8731346E0,2.8378165E0,8.481934E0,7.8930306E-1,5.972744E0,1.0007521E0,1.7182137E1,4.6282654E0,3.5580058E0,1.0374954E1,-3.4683483E0,-1.4859291E0,5.002074E-1,-1.3935682E0,1.8912724E0,-4.4750813E-2,6.699177E-1,4.400538E0,-3.382153E0,-2.1707075E0,-4.6377635E0,-2.1684175E0,-4.8437476E0,-3.8638628E0,3.90271E-1,-1.3624816E0,5.4918E-1,2.8180432E0,6.2312627E0,3.3291905E0,1.416849E0,1.1263301E1,-1.379229E0,4.6549526E-1,3.104588E0,-3.4266344E-1,-1.5451521E0,-3.1015317E0,-1.1063162E0,1.549788E0],"split_indices":[2,4,4,2,0,2,2,0,0,0,2,0,2,0,2,2,3,4,4,2,2,4,0,4,0,3,0,0,11,0,0,3,0,0,0,2,0,2,2,0,1,1,0,0,0,8,2,2,4,0,0,0,1,0,4,3,2,4,2,2,0,0,0,0,0,0,0,0,0,0,0,0,0,0,0,0,0,0,0,0,0,0,0,0,0,0,0,0,0,0,0,0,0,0,0,0,0,0,0,0,0,0,0,0,0,0,0,0,0],"split_type":[0,0,0,0,0,0,0,0,0,0,0,0,0,0,0,0,0,0,0,0,0,0,0,0,0,0,0,0,0,0,0,0,0,0,0,0,0,0,0,0,0,0,0,0,0,0,0,0,0,0,0,0,0,0,0,0,0,0,0,0,0,0,0,0,0,0,0,0,0,0,0,0,0,0,0,0,0,0,0,0,0,0,0,0,0,0,0,0,0,0,0,0,0,0,0,0,0,0,0,0,0,0,0,0,0,0,0,0,0],"sum_hessian":[1E3,2.38E2,7.62E2,1.46E2,9.2E1,4.39E2,3.23E2,2.1E1,1.25E2,7.2E1,2E1,5E1,3.89E2,3.5E1,2.88E2,1.3E1,8E0,7.4E1,5.1E1,2.5E1,4.7E1,1.5E1,5E0,3.1E1,1.9E1,1.96E2,1.93E2,1.3E1,2.2E1,1.09E2,1.79E2,7E0,6E0,2E0,6E0,2.3E1,5.1E1,1.7E1,3.4E1,1E1,1.5E1,3E1,1.7E1,4E0,1.1E1,2E1,1.1E1,1.2E1,7E0,1.65E2,3.1E1,1.89E2,4E0,5E0,8E0,1.5E1,7E0,7.4E1,3.5E1,1.01E2,7.8E1,4E0,3E0,2E0,2.1E1,6E0,4.5E1,1E1,7E0,1.6E1,1.8E1,9E0,1E0,6E0,9E0,2.9E1,1E0,4E0,1.3E1,1.3E1,7E0,5E0,6E0,6E0,6E0,2E0,5E0,1.09E2,5.6E1,2.8E1,3E0,1.07E2,8.2E1,1E0,3E0,6E0,2E0,7E0,8E0,1E0,6E0,3.2E1,4.2E1,2.7E1,8E0,2.6E1,7.5E1,6.8E1,1E1],"tree_param":{"num_deleted":"0","num_feature":"14","num_nodes":"109","size_leaf_vector":"1"}},{"base_weights":[2.4568495E-1,2.3644958E1,-3.4919834E0,1.5279349E1,5.7471004E1,5.8388095E0,-6.0079513E0,5.4749575E0,2.368524E1,4.1844402E1,2.6806093E1,1.5040404E0,2.302008E1,-8.9556675E0,-2.0503576E0,1.9586997E-1,9.515729E0,1.3145939E1,3.3120525E1,1.5795652E0,1.3684875E1,-4.0372033E0,6.3949647E0,1.2676839E1,3.215174E1,-1.0940954E1,-7.8373857E0,1.691923E0,-4.3882875E0,4.927374E0,-2.971524E0,1.14291315E1,-2.337112E0,2.4881597E0,1.7595074E1,1.1958017E1,2.3274355E1,-6.1632423E0,5.752774E-1,-2.1547185E-1,1.04465685E1,4.186277E0,1.5410162E1,5.5048716E-1,3.3734066E1,-7.582619E0,-1.1478924E1,-9.020645E0,-5.3051605E0,4.850395E-1,1.283893E1,-5.803484E0,-3.7559086E-1,4.8108646E-1,2.3791206E0,-1.403263E0,8.668243E-1,4.686548E0,2.3496997E0,-1.0227447E0,2.926552E-1,-1.2341627E0,1.77159E0,2.719243E0,7.3579364E0,7.522856E0,-2.926947E-1,-8.6073583E-1,-2.1195097E0,-1.9945297E0,7.337928E-1,-1.1134174E0,4.1501296E-1,2.358439E0,5.1001782E0,2.0500185E-2,1.8684496E0,6.4373198E0,2.8998628E0,1.2216954E1,5.972182E0,-2.4048257E0,-6.4959013E-1,-3.7090647E-1,-3.4669693E0,-3.8775249E0,-2.5430465E0,-4.249888E-1,-2.2101638E0,-1.3748242E0,7.0372105E-1,1.0069989E0,6.054413E0,-2.2255385E0,-1.2305664E0,-3.689803E-1,2.798901E0],"categories":[],"categories_nodes":[],"categories_segments":[],"categories_sizes":[],"default_left":[0,0,0,0,0,0,0,0,0,0,0,0,0,0,0,0,0,0,0,0,0,0,0,0,0,0,0,0,0,0,0,0,0,0,0,0,0,0,0,0,0,0,0,0,0,0,0,0,0,0,0,0,0,0,0,0,0,0,0,0,0,0,0,0,0,0,0,0,0,0,0,0,0,0,0,0,0,0,0,0,0,0,0,0,0,0,0,0,0,0,0,0,0,0,0,0,0],"id":2,"left_children":[1,3,5,7,9,11,13,15,17,19,-1,21,23,25,27,29,31,33,35,-1,-1,37,39,41,43,45,47,49,51,53,55,57,59,61,63,-1,65,67,69,71,73,75,77,-1,79,81,83,85,87,89,91,93,95,-1,-1,-1,-1,-1,-1,-1,-1,-1,-1,-1,-1,-1,-1,-1,-1,-1,-1,-1,-1,-1,-1,-1,-1,-1,-1,-1,-1,-1,-1,-1,-1,-1,-1,-1,-1,-1,-1,-1,-1,-1,-1,-1,-1],"loss_changes":[8.762875E4,3.8172508E4,2.031832E4,9.100766E3,9.712906E3,1.3669118E4,7.92609E3,1.12871E3,5.531078E3,2.5192383E3,0E0,4.0368848E3,3.0871016E3,7.8009375E2,2.562188E3,3.743187E2,7.070891E2,1.3787578E3,1.1294023E3,0E0,0E0,6.8998755E2,2.1180977E3,3.7643018E2,8.495488E2,1.6228125E2,7.1020215E2,1.5139775E3,1.01999585E3,8.7095856E1,1.6349846E2,2.6973193E2,2.108198E1,2.4989445E2,1.0194424E3,0E0,6.798823E2,1.223186E2,3.2706967E2,1.7840703E2,6.965493E2,5.002468E1,2.789026E2,0E0,9.287793E2,3.430371E1,7.875488E1,2.5352539E2,6.550864E2,9.820004E2,6.981111E2,3.3505957E2,4.0947284E2,0E0,0E0,0E0,0E0,0E0,0E0,0E0,0E0,0E0,0E0,0E0,0E0,0E0,0E0,0E0,0E0,0E0,0E0,0E0,0E0,0E0,0E0,0E0,0E0,0E0,0E0,0E0,0E0,0E0,0E0,0E0,0E0,0E0,0E0,0E0,0E0,0E0,0E0,0E0,0E0,0E0,0E0,0E0,0E0],"parents":[2147483647,0,0,1,1,2,2,3,3,4,4,5,5,6,6,7,7,8,8,9,9,11,11,12,12,13,13,14,14,15,15,16,16,17,17,18,18,21,21,22,22,23,23,24,24,25,25,26,26,27,27,28,28,29,29,30,30,31,31,32,32,33,33,34,34,36,36,37,37,38,38,39,39,40,40,41,41,42,42,44,44,45,45,46,46,47,47,48,48,49,49,50,50,51,51,52,52],"right_children":[2,4,6,8,10,12,14,16,18,20,-1,22,24,26,28,30,32,34,36,-1,-1,38,40,42,44,46,48,50,52,54,56,58,60,62,64,-1,66,68,70,72,74,76,78,-1,80,82,84,86,88,90,92,94,96,-1,-1,-1,-1,-1,-1,-1,-1,-1,-1,-1,-1,-1,-1,-1,-1,-1,-1,-1,-1,-1,-1,-1,-1,-1,-1,-1,-1,-1,-1,-1,-1,-1,-1,-1,-1,-1,-1,-1,-1,-1,-1,-1,-1],"split_conditions":[9.252E3,2E2,1.4103E4,1E2,3.8556034E1,2E2,1.5E2,3.0009375E1,3.0382298E1,2.1806065E1,2.6806093E1,1E2,3.351474E1,7.5E1,2.2942E4,7.307E3,3.2053884E3,2.3777857E1,6.847E3,1.5795652E0,1.3684875E1,3.4927967E1,2.9881214E1,2.5406603E1,1.2691532E3,1.721E4,3.6276424E1,4.187311E1,3.794119E1,7.5E1,8.809E3,1.4777662E3,2.0012E0,2.0652794E1,1.5E2,1.1958017E1,1E0,1.8809233E3,1.5868671E3,2.155947E1,3.8556034E1,2.251632E1,2.9143853E3,5.5048716E-1,1.2794E4,6.9865283E3,2.8761943E3,2.0971905E1,2.1734E4,2.7673368E1,2E2,2E2,4.9877445E1,4.8108646E-1,2.3791206E0,-1.403263E0,8.668243E-1,4.686548E0,2.3496997E0,-1.0227447E0,2.926552E-1,-1.2341627E0,1.77159E0,2.719243E0,7.3579364E0,7.522856E0,-2.926947E-1,-8.6073583E-1,-2.1195097E0,-1.9945297E0,7.337928E-1,-1.1134174E0,4.1501296E-1,2.358439E0,5.1001782E0,2.0500185E-2,1.8684496E0,6.4373198E0,2.8998628E0,1.2216954E1,5.972182E0,-2.4048257E0,-6.4959013E-1,-3.7090647E-1,-3.4669693E0,-3.8775249E0,-2.5430465E0,-4.249888E-1,-2.2101638E0,-1.3748242E0,7.0372105E-1,1.0069989E0,6.054413E0,-2.2255385E0,-1.2305664E0,-3.689803E-1,2.798901E0],"split_indices":[2,4,2,4,0,4,4,0,0,0,0,4,0,4,2,2,3,0,2,0,0,0,0,0,3,2,0,0,0,4,2,3,1,0,4,0,12,3,3,0,0,0,3,0,2,3,3,0,2,0,4,4,0,0,0,0,0,0,0,0,0,0,0,0,0,0,0,0,0,0,0,0,0,0,0,0,0,0,0,0,0,0,0,0,0,0,0,0,0,0,0,0,0,0,0,0,0],"split_type":[0,0,0,0,0,0,0,0,0,0,0,0,0,0,0,0,0,0,0,0,0,0,0,0,0,0,0,0,0,0,0,0,0,0,0,0,0,0,0,0,0,0,0,0,0,0,0,0,0,0,0,0,0,0,0,0,0,0,0,0,0,0,0,0,0,0,0,0,0,0,0,0,0,0,0,0,0,0,0,0,0,0,0,0,0,0,0,0,0,0,0,0,0,0,0,0,0],"sum_hessian":[1E3,1.37E2,8.63E2,1.11E2,2.6E1,1.83E2,6.8E2,5.2E1,5.9E1,1.9E1,7E0,1.47E2,3.6E1,3.89E2,2.91E2,2.3E1,2.9E1,2.9E1,3E1,2E0,1.7E1,6.9E1,7.8E1,1.8E1,1.8E1,1.37E2,2.52E2,1.12E2,1.79E2,9E0,1.4E1,2.5E1,4E0,9E0,2E1,1.6E1,1.4E1,4.7E1,2.2E1,3E1,4.8E1,5E0,1.3E1,1E0,1.7E1,2.1E1,1.16E2,1.7E2,8.2E1,1.02E2,1E1,1.32E2,4.7E1,5E0,4E0,1.1E1,3E0,1E1,1.5E1,3E0,1E0,3E0,6E0,1E1,1E1,1.3E1,1E0,1.1E1,3.6E1,4E0,1.8E1,9E0,2.1E1,3.6E1,1.2E1,2E0,3E0,5E0,8E0,1E1,7E0,1.9E1,2E0,1E0,1.15E2,1.8E1,1.52E2,2.9E1,5.3E1,2.7E1,7.5E1,5E0,5E0,6.6E1,6.6E1,4.4E1,3E0],"tree_param":{"num_deleted":"0","num_feature":"14","num_nodes":"97","size_leaf_vector":"1"}},{"base_weights":[2.7428156E-1,1.238727E1,-3.5203168E0,3.8000515E0,2.582742E1,-4.9933877E0,1.6086379E0,1.017302E1,1.1539779E0,4.475035E1,1.8596975E1,-1.8086644E0,-6.1064596E0,1.2197032E1,-1.1926815E-1,3.0810297E0,1.3143516E1,-1.9614653E-1,9.943797E0,3.239821E1,6.3109917E1,1.016424E1,2.6498367E1,-4.6657324E0,1.2225734E0,-7.5874715E0,-4.6898875E0,3.2800174E0,1.7328573E1,-3.5846858E0,2.153831E0,2.8191584E-1,8.063051E0,6.095151E0,1.5873999E1,-2.4239361E0,3.860324E0,4.7856717E0,4.8333035E0,4.756897E-1,3.422489E1,9.193896E0,2.2270199E1,3.3821852E0,1.2741775E1,2.058491E1,3.0939693E1,-6.2124505E0,-3.5604112E0,-1.1077753E0,4.8327007E0,-7.8304305E0,-2.4140017E0,-5.2512674E0,-9.71122E-1,-7.214287E-1,5.0018077E0,7.4593763E0,7.509509E0,-1.2503186E0,-6.4994473E0,4.5659356E0,-1.1175349E0,7.205357E-1,-1.0495007E0,7.1727794E-1,2.6650054E0,5.889808E-1,2.2756472E0,7.2963576E0,3.514253E0,-2.0158758E0,-4.2912441E-1,-2.8260145E-1,1.9948108E0,7.676474E-1,2.558796E0,4.6067047E0,1.1219437E1,-1.8294774E0,1.4820167E0,4.3112564E0,1.0053868E0,6.7390466E0,1.111256E0,1.0827963E1,6.5327463E0,-2.3047113E0,-1.3927144E0,1.1170578E-2,-1.2789898E0,-1.648841E0,6.804372E-2,1.752139E0,-4.122613E-1,-3.0049748E0,-2.194608E0,9.5362765E-1,-1.2030098E0,-2.2034125E0,-1.3803682E0,1.9863734E0,-6.063189E-1,-2.6046526E-1,2.1309557E0,3.2044313E0,-4.4136104E-1,4.3069026E-1,-7.287851E-1,-2.0219054E0,-7.402897E-2,6.694139E-1,2.9037673E0,1.5319836E0,-4.7759756E-1],"categories":[],"categories_nodes":[],"categories_segments":[],"categories_sizes":[],"default_left":[0,0,0,0,0,0,0,0,0,0,0,0,0,0,0,0,0,0,0,0,0,0,0,0,0,0,0,0,0,0,0,0,0,0,0,0,0,0,0,0,0,0,0,0,0,0,0,0,0,0,0,0,0,0,0,0,0,0,0,0,0,0,0,0,0,0,0,0,0,0,0,0,0,0,0,0,0,0,0,0,0,0,0,0,0,0,0,0,0,0,0,0,0,0,0,0,0,0,0,0,0,0,0,0,0,0,0,0,0,0,0,0,0,0,0],"id":3,"left_children":[1,3,5,7,9,11,13,15,17,19,21,23,25,27,29,31,33,35,37,39,41,43,45,47,49,51,53,55,57,59,61,63,65,67,69,71,73,-1,75,-1,77,-1,-1,79,81,83,85,87,89,91,93,95,97,99,101,-1,103,105,-1,107,109,111,113,-1,-1,-1,-1,-1,-1,-1,-1,-1,-1,-1,-1,-1,-1,-1,-1,-1,-1,-1,-1,-1,-1,-1,-1,-1,-1,-1,-1,-1,-1,-1,-1,-1,-1,-1,-1,-1,-1,-1,-1,-1,-1,-1,-1,-1,-1,-1,-1,-1,-1,-1,-1],"loss_changes":[4.60535E4,2.7485684E4,5.7727363E3,2.467172E3,1.1892156E4,2.091037E3,3.1300276E3,8.65374E2,1.2480222E3,3.6248516E3,4.3281562E3,1.3480743E3,8.854209E2,1.041354E3,1.1735521E3,1.9296037E2,4.806084E2,8.4075775E2,3.5278357E2,9.025742E2,9.7514844E2,5.68739E2,2.8233594E2,1.14650635E2,6.447305E2,2.4882617E2,4.6879492E2,1.0990814E2,9.536338E2,3.933169E2,7.152814E2,8.853865E1,2.0247498E0,4.6686707E1,4.530127E2,2.4645743E2,4.482628E2,0E0,5.3833572E1,0E0,3.837461E2,0E0,0E0,1.9258801E2,3.342854E2,4.8760303E2,6.411328E1,3.81875E1,1.2406708E2,2.7650928E2,1.9567865E2,1.5530762E2,1.1093534E2,2.3428711E2,2.6049957E2,0E0,1.0484825E2,2.4591354E2,0E0,1.1115349E2,3.7392212E1,5.991394E2,1.2330017E2,0E0,0E0,0E0,0E0,0E0,0E0,0E0,0E0,0E0,0E0,0E0,0E0,0E0,0E0,0E0,0E0,0E0,0E0,0E0,0E0,0E0,0E0,0E0,0E0,0E0,0E0,0E0,0E0,0E0,0E0,0E0,0E0,0E0,0E0,0E0,0E0,0E0,0E0,0E0,0E0,0E0,0E0,0E0,0E0,0E0,0E0,0E0,0E0,0E0,0E0,0E0,0E0],"parents":[2147483647,0,0,1,1,2,2,3,3,4,4,5,5,6,6,7,7,8,8,9,9,10,10,11,11,12,12,13,13,14,14,15,15,16,16,17,17,18,18,19,19,20,20,21,21,22,22,23,23,24,24,25,25,26,26,27,27,28,28,29,29,30,30,31,31,32,32,33,33,34,34,35,35,36,36,38,38,40,40,43,43,44,44,45,45,46,46,47,47,48,48,49,49,50,50,51,51,52,52,53,53,54,54,56,56,57,57,59,59,60,60,61,61,62,62],"right_children":[2,4,6,8,10,12,14,16,18,20,22,24,26,28,30,32,34,36,38,40,42,44,46,48,50,52,54,56,58,60,62,64,66,68,70,72,74,-1,76,-1,78,-1,-1,80,82,84,86,88,90,92,94,96,98,100,102,-1,104,106,-1,108,110,112,114,-1,-1,-1,-1,-1,-1,-1,-1,-1,-1,-1,-1,-1,-1,-1,-1,-1,-1,-1,-1,-1,-1,-1,-1,-1,-1,-1,-1,-1,-1,-1,-1,-1,-1,-1,-1,-1,-1,-1,-1,-1,-1,-1,-1,-1,-1,-1,-1,-1,-1,-1,-1],"split_conditions":[1.1483E4,1.5E2,2E2,7.344E3,6.762E3,1.7731E4,1.5604E4,7.5E1,3.9551956E1,3.501412E1,3.242002E1,1E2,1E2,7.3292464E-1,2.9785059E1,1E0,2.8281202E1,1E2,8.809E3,8.971494E2,2E2,2.4458279E1,3.6113262E1,7.5E1,3.444482E1,4.3274002E1,4.146134E1,2.045209E1,3.048939E1,2.6789E4,2.7463E4,6.762E3,2.9881214E1,3.733971E-1,8.472024E-3,2.3777857E1,2.9271437E1,4.7856717E0,1E0,4.756897E-1,2.8212599E1,9.193896E0,2.2270199E1,1.3567986E1,1.0136E4,1E0,1.0098E4,3.7885657E3,2.0417261E3,2.2006699E1,2.9459453E0,2.515772E1,3.331394E3,2.5406603E1,2.992604E3,-7.214287E-1,2.6171306E3,1.4479E4,7.509509E0,5.044825E3,1.4981242E4,3.8556034E1,3.1235857E1,7.205357E-1,-1.0495007E0,7.1727794E-1,2.6650054E0,5.889808E-1,2.2756472E0,7.2963576E0,3.514253E0,-2.0158758E0,-4.2912441E-1,-2.8260145E-1,1.9948108E0,7.676474E-1,2.558796E0,4.6067047E0,1.1219437E1,-1.8294774E0,1.4820167E0,4.3112564E0,1.0053868E0,6.7390466E0,1.111256E0,1.0827963E1,6.5327463E0,-2.3047113E0,-1.3927144E0,1.1170578E-2,-1.2789898E0,-1.648841E0,6.804372E-2,1.752139E0,-4.122613E-1,-3.0049748E0,-2.194608E0,9.5362765E-1,-1.2030098E0,-2.2034125E0,-1.3803682E0,1.9863734E0,-6.063189E-1,-2.6046526E-1,2.1309557E0,3.2044313E0,-4.4136104E-1,4.3069026E-1,-7.287851E-1,-2.0219054E0,-7.402897E-2,6.694139E-1,2.9037673E0,1.5319836E0,-4.7759756E-1],"split_indices":[2,4,4,2,2,2,2,4,0,0,0,4,4,1,0,12,0,4,2,3,4,0,0,4,0,0,0,0,0,2,2,2,0,1,1,0,0,0,6,0,0,0,0,0,2,12,2,3,3,0,1,0,3,0,3,0,3,2,0,3,3,0,0,0,0,0,0,0,0,0,0,0,0,0,0,0,0,0,0,0,0,0,0,0,0,0,0,0,0,0,0,0,0,0,0,0,0,0,0,0,0,0,0,0,0,0,0,0,0,0,0,0,0,0,0],"split_type":[0,0,0,0,0,0,0,0,0,0,0,0,0,0,0,0,0,0,0,0,0,0,0,0,0,0,0,0,0,0,0,0,0,0,0,0,0,0,0,0,0,0,0,0,0,0,0,0,0,0,0,0,0,0,0,0,0,0,0,0,0,0,0,0,0,0,0,0,0,0,0,0,0,0,0,0,0,0,0,0,0,0,0,0,0,0,0,0,0,0,0,0,0,0,0,0,0,0,0,0,0,0,0,0,0,0,0,0,0,0,0,0,0,0,0],"sum_hessian":[1E3,2.38E2,7.62E2,1.46E2,9.2E1,5.92E2,1.7E2,4.2E1,1.04E2,2.4E1,6.8E1,1.54E2,4.38E2,2.3E1,1.47E2,1.3E1,2.9E1,9.1E1,1.3E1,1.6E1,8E0,3.4E1,3.4E1,7.9E1,7.5E1,2.12E2,2.26E2,9E0,1.4E1,5.8E1,8.9E1,9E0,4E0,9E0,2E1,5.9E1,3.2E1,5E0,8E0,1E0,1.5E1,3E0,5E0,1E1,2.4E1,1.7E1,1.7E1,3.1E1,4.8E1,4.6E1,2.9E1,2.02E2,1E1,1.96E2,3E1,2E0,7E0,7E0,7E0,3.3E1,2.5E1,5.1E1,3.8E1,6E0,3E0,1E0,3E0,3E0,6E0,5E0,1.5E1,1E1,4.9E1,1.2E1,2E1,6E0,2E0,3E0,1.2E1,1E0,9E0,2E1,4E0,1.5E1,2E0,9E0,8E0,1.4E1,1.7E1,8E0,4E1,1E1,3.6E1,2.5E1,4E0,3.5E1,1.67E2,2E0,8E0,4.4E1,1.52E2,3E0,2.7E1,2E0,5E0,5E0,2E0,1E1,2.3E1,2.4E1,1E0,3.6E1,1.5E1,2E0,3.6E1],"tree_param":{"num_deleted":"0","num_feature":"14","num_nodes":"115","size_leaf_vector":"1"}},{"base_weights":[2.9474467E-1,1.2797514E1,-1.7025666E0,8.179428E0,3.1480036E1,2.503738E0,-3.1964984E0,2.9258468E0,1.2683768E1,1.7213781E1,2.2985699E1,2.592965E-1,1.1575495E1,-4.1187224E0,-8.8125914E-2,-3.0181677E0,3.7488735E0,8.026908E0,2.094999E1,1.5706973E1,9.526258E0,-2.451993E0,2.9094906E0,5.8276396E0,1.7319723E1,-5.1465044E0,-3.0950382E0,-1.9435862E0,2.3485427E0,1.3783313E0,-5.052675E0,4.674122E0,-3.3526788E0,1.8186922E1,5.6990547E0,2.5999392E1,1.4996321E1,2.0490732E1,2.9980607E0,-3.6570983E0,1.20291516E-1,1.5902034E0,9.66377E0,1.2949928E0,8.972745E0,-5.119978E-1,1.830701E1,-4.1114874E0,-6.114976E0,-4.824826E0,-2.364137E0,-8.953999E-1,-5.2530127E0,6.8773513E0,8.218186E-1,-5.367756E-1,-1.871122E0,2.2818322E0,7.7318424E-1,-1.805675E0,-1.5444918E-1,7.3261704E0,5.20562E-1,3.4924634E0,9.28229E-1,8.684629E0,2.8403811E0,1.4511163E0,5.8413973E0,9.6724814E-1,7.3213067E0,-4.7003633E-1,3.1886182E0,-1.4365134E0,-7.7538663E-1,-8.5166264E-1,5.948724E-1,-1.8852535E-1,1.0985441E0,3.6679823E0,1.4964461E0,-5.43662E-1,9.988266E-1,2.9578311E0,-3.8313678E-1,3.2692327E0,6.370023E0,-1.3101274E0,2.0252086E-1,-2.0123394E0,-1.2602988E0,-1.5133135E0,5.938554E-1,1.3210623E-1,-9.4020015E-1,-2.0468178E0,-1.4956497E-1,-1.8132865E0,3.736935E-1,1.02613E0,4.1395454E0,8.915937E-2,2.6300812E0],"categories":[],"categories_nodes":[],"categories_segments":[],"categories_sizes":[],"default_left":[0,0,0,0,0,0,0,0,0,0,0,0,0,0,0,0,0,0,0,0,0,0,0,0,0,0,0,0,0,0,0,0,0,0,0,0,0,0,0,0,0,0,0,0,0,0,0,0,0,0,0,0,0,0,0,0,0,0,0,0,0,0,0,0,0,0,0,0,0,0,0,0,0,0,0,0,0,0,0,0,0,0,0,0,0,0,0,0,0,0,0,0,0,0,0,0,0,0,0,0,0,0,0],"id":4,"left_children":[1,3,5,7,9,11,13,15,17,-1,19,21,23,25,27,29,31,33,35,37,-1,39,41,43,45,47,49,51,53,-1,55,57,59,61,63,65,67,69,71,73,75,77,79,81,83,-1,85,87,89,91,93,95,97,99,101,-1,-1,-1,-1,-1,-1,-1,-1,-1,-1,-1,-1,-1,-1,-1,-1,-1,-1,-1,-1,-1,-1,-1,-1,-1,-1,-1,-1,-1,-1,-1,-1,-1,-1,-1,-1,-1,-1,-1,-1,-1,-1,-1,-1,-1,-1,-1,-1],"loss_changes":[2.5018682E4,1.1648809E4,5.4373213E3,2.6132476E3,4.6210117E3,4.618951E3,1.8285386E3,2.7059506E2,2.1415146E3,0E0,9.053535E2,1.3220701E3,1.3848315E3,5.0171582E2,6.691725E2,1.316295E2,3.2449384E2,8.423926E2,2.4141699E2,7.8971704E2,0E0,2.8252844E2,8.1333997E2,3.30516E2,4.4450293E2,2.1943945E2,3.0340527E2,2.866837E2,4.3685956E2,0E0,1.2031448E1,2.3860895E2,4.2299553E1,6.7550415E2,4.9029773E2,2.1348926E2,4.5136914E2,5.9706494E2,1.9081712E2,6.284662E1,1.70983E2,3.6539453E2,1.1875464E2,7.556875E1,1.3983032E2,0E0,2.2396045E2,1.509867E2,1.1251709E2,1.1904077E2,3.8353625E2,1.4949539E2,1.103736E2,3.356159E2,2.0163503E2,0E0,0E0,0E0,0E0,0E0,0E0,0E0,0E0,0E0,0E0,0E0,0E0,0E0,0E0,0E0,0E0,0E0,0E0,0E0,0E0,0E0,0E0,0E0,0E0,0E0,0E0,0E0,0E0,0E0,0E0,0E0,0E0,0E0,0E0,0E0,0E0,0E0,0E0,0E0,0E0,0E0,0E0,0E0,0E0,0E0,0E0,0E0,0E0],"parents":[2147483647,0,0,1,1,2,2,3,3,4,4,5,5,6,6,7,7,8,8,10,10,11,11,12,12,13,13,14,14,15,15,16,16,17,17,18,18,19,19,21,21,22,22,23,23,24,24,25,25,26,26,27,27,28,28,30,30,31,31,32,32,33,33,34,34,35,35,36,36,37,37,38,38,39,39,40,40,41,41,42,42,43,43,44,44,46,46,47,47,48,48,49,49,50,50,51,51,52,52,53,53,54,54],"right_children":[2,4,6,8,10,12,14,16,18,-1,20,22,24,26,28,30,32,34,36,38,-1,40,42,44,46,48,50,52,54,-1,56,58,60,62,64,66,68,70,72,74,76,78,80,82,84,-1,86,88,90,92,94,96,98,100,102,-1,-1,-1,-1,-1,-1,-1,-1,-1,-1,-1,-1,-1,-1,-1,-1,-1,-1,-1,-1,-1,-1,-1,-1,-1,-1,-1,-1,-1,-1,-1,-1,-1,-1,-1,-1,-1,-1,-1,-1,-1,-1,-1,-1,-1,-1,-1,-1],"split_conditions":[9.252E3,2E2,1.5713E4,1E2,5.615E3,2E2,2E2,2.3777857E1,3.273885E1,1.7213781E1,3.4425014E1,1E2,3.351474E1,1E2,3.4763493E1,2.0237608E1,3.331394E3,5.869E3,1.1241118E0,3.3049557E1,9.526258E0,3.4927967E1,3.8556034E1,2.663213E1,1.2691532E3,2.529E4,2.7731411E1,3.0546E4,2.1241E4,1.3783313E0,1.2634152E0,5.1705945E-1,3.5387164E-1,1.4793742E0,1.5159155E3,6.762E3,1.9047207E0,2.1806065E1,2.846847E0,7.5E1,7.5E1,2.9710789E1,4.2381323E3,2.251632E1,3.3376758E0,-5.119978E-1,7.3292464E-1,4.3274002E1,1E0,1E0,2.0056E4,1.8847889E1,2.8260503E0,3.8933243E1,4.9877445E1,-5.367756E-1,-1.871122E0,2.2818322E0,7.7318424E-1,-1.805675E0,-1.5444918E-1,7.3261704E0,5.20562E-1,3.4924634E0,9.28229E-1,8.684629E0,2.8403811E0,1.4511163E0,5.8413973E0,9.6724814E-1,7.3213067E0,-4.7003633E-1,3.1886182E0,-1.4365134E0,-7.7538663E-1,-8.5166264E-1,5.948724E-1,-1.8852535E-1,1.0985441E0,3.6679823E0,1.4964461E0,-5.43662E-1,9.988266E-1,2.9578311E0,-3.8313678E-1,3.2692327E0,6.370023E0,-1.3101274E0,2.0252086E-1,-2.0123394E0,-1.2602988E0,-1.5133135E0,5.938554E-1,1.3210623E-1,-9.4020015E-1,-2.0468178E0,-1.4956497E-1,-1.8132865E0,3.736935E-1,1.02613E0,4.1395454E0,8.915937E-2,2.6300812E0],"split_indices":[2,4,2,4,2,4,4,0,0,0,0,4,0,4,0,0,3,2,1,0,0,0,0,0,3,2,0,2,2,0,1,1,1,1,3,2,1,0,1,4,4,0,3,0,1,0,1,0,7,7,2,0,1,0,0,0,0,0,0,0,0,0,0,0,0,0,0,0,0,0,0,0,0,0,0,0,0,0,0,0,0,0,0,0,0,0,0,0,0,0,0,0,0,0,0,0,0,0,0,0,0,0,0],"split_type":[0,0,0,0,0,0,0,0,0,0,0,0,0,0,0,0,0,0,0,0,0,0,0,0,0,0,0,0,0,0,0,0,0,0,0,0,0,0,0,0,0,0,0,0,0,0,0,0,0,0,0,0,0,0,0,0,0,0,0,0,0,0,0,0,0,0,0,0,0,0,0,0,0,0,0,0,0,0,0,0,0,0,0,0,0,0,0,0,0,0,0,0,0,0,0,0,0,0,0,0,0,0,0],"sum_hessian":[1E3,1.37E2,8.63E2,1.11E2,2.6E1,2.26E2,6.37E2,5.2E1,5.9E1,5E0,2.1E1,1.82E2,4.4E1,4.91E2,1.46E2,6E0,4.6E1,3.9E1,2E1,1.3E1,8E0,9E1,9.2E1,2.3E1,2.1E1,2.43E2,2.48E2,8.3E1,6.3E1,1E0,5E0,4.1E1,5E0,6E0,3.3E1,9E0,1.1E1,9E0,4E0,6.1E1,2.9E1,7.8E1,1.4E1,1E1,1.3E1,1E0,2E1,1.2E2,1.23E2,7.2E1,1.76E2,6.4E1,1.9E1,1.5E1,4.8E1,2E0,3E0,1.6E1,2.5E1,2E0,3E0,4E0,2E0,9E0,2.4E1,7E0,2E0,4E0,7E0,2E0,7E0,3E0,1E0,2.8E1,3.3E1,1.1E1,1.8E1,3.8E1,4E1,8E0,6E0,4E0,6E0,1.2E1,1E0,7E0,1.3E1,1.14E2,6E0,9.2E1,3.1E1,7E1,2E0,3.8E1,1.38E2,3E0,6.1E1,1.7E1,2E0,1.1E1,4E0,4.6E1,2E0],"tree_param":{"num_deleted":"0","num_feature":"14","num_nodes":"103","size_leaf_vector":"1"}},{"base_weights":[2.8904E-1,7.030889E0,-1.7426457E0,2.148765E0,1.4709921E1,-2.9886262E0,-4.5526594E-2,1.1178306E0,8.433121E0,3.478091E1,1.2050417E1,-1.5933933E0,-3.4601307E0,2.6922534E0,-1.3344116E0,4.196431E0,-1.4000605E-1,1.2363522E1,2.2555723E0,8.935124E0,1.2037642E1,8.088459E0,1.9260963E1,-2.7363124E0,1.5562424E-1,-5.8129625E0,-3.2738028E0,-9.6533686E-1,4.3088045E0,-1.788622E0,2.506275E0,1.1579536E0,5.4870434E0,-3.8414729E0,6.622031E-1,5.2420206E0,7.6244054E0,1.754823E0,3.931318E-1,3.7754552E0,2.4535103E-1,4.1812315E0,1.0852492E1,2.3906237E1,1.2908101E1,-2.055004E0,-4.6994324E0,-1.3773209E-1,2.003499E0,-6.2567616E0,-2.140728E0,-3.4219255E0,-8.3288217E-1,-5.0515413E0,5.4431015E-1,7.625354E0,2.822787E0,-1.0142313E0,-3.3107073E0,5.5358653E0,-1.5774101E0,1.7431744E0,-1.06089026E-1,8.7004624E-2,1.938943E0,4.4772208E-1,-1.4130169E0,-9.9148594E-2,1.2844173E0,1.8950844E-2,2.6086674E0,-1.3999776E0,6.042553E-1,2.2321048E0,9.062548E-2,2.1410327E0,4.4563994E0,2.8937867E0,7.607439E0,3.7446746E-1,4.4242187E0,3.4310263E-1,-7.236079E-1,-1.6303027E0,1.6247827E-1,2.5618404E-1,-5.018076E-1,-1.0339539E0,-2.1644924E0,-1.191512E0,5.028312E-1,-8.36258E-1,-1.1999031E0,7.949629E-1,-4.95455E-1,-2.4476202E0,-8.994716E-1,-2.6515737E-1,4.2086875E-1,2.7563865E0,5.781277E-1,1.2634939E0,1.7160368E-1,-5.819113E-1,1.0510561E-1,-1.3299768E0,-1.9220535E-1,7.0682056E-2,2.5362823E0,-7.5983363E-1,5.4434985E-1],"categories":[],"categories_nodes":[],"categories_segments":[],"categories_sizes":[],"default_left":[0,0,0,0,0,0,0,0,0,0,0,0,0,0,0,0,0,0,0,0,0,0,0,0,0,0,0,0,0,0,0,0,0,0,0,0,0,0,0,0,0,0,0,0,0,0,0,0,0,0,0,0,0,0,0,0,0,0,0,0,0,0,0,0,0,0,0,0,0,0,0,0,0,0,0,0,0,0,0,0,0,0,0,0,0,0,0,0,0,0,0,0,0,0,0,0,0,0,0,0,0,0,0,0,0,0,0,0,0,0,0],"id":5,"left_children":[1,3,5,7,9,11,13,15,17,19,21,23,25,27,29,31,33,35,37,39,-1,41,43,45,47,49,51,53,55,57,59,61,63,65,67,-1,69,-1,71,-1,-1,73,75,77,79,81,83,85,-1,87,89,91,93,95,97,99,101,103,105,107,109,-1,-1,-1,-1,-1,-1,-1,-1,-1,-1,-1,-1,-1,-1,-1,-1,-1,-1,-1,-1,-1,-1,-1,-1,-1,-1,-1,-1,-1,-1,-1,-1,-1,-1,-1,-1,-1,-1,-1,-1,-1,-1,-1,-1,-1,-1,-1,-1,-1,-1],"loss_changes":[1.3723269E4,8.666067E3,1.6280884E3,9.1703564E2,4.3849766E3,2.8657568E2,1.1574722E3,4.8076227E2,4.5771802E2,1.0228164E3,2.158207E3,2.2831012E2,1.26079346E2,6.249909E2,3.9350177E2,1.3482013E2,2.6681604E2,1.5737146E2,5.794019E1,7.858528E1,0E0,5.378071E2,5.177178E2,8.262952E1,8.893976E1,2.4089844E1,1.08870605E2,2.0631757E2,3.3825195E2,2.3237988E2,3.056577E2,8.644883E1,1.24945984E2,8.1156006E1,2.6727933E2,0E0,6.42446E1,0E0,6.681391E1,0E0,0E0,3.011747E2,3.5498462E2,6.596289E1,2.8183545E2,6.3284576E1,6.842178E1,6.992681E1,0E0,2.8989807E1,3.4611145E1,9.550952E1,5.8547325E1,3.295822E1,3.1895077E1,1.7818445E2,1.6014331E2,1.6990622E2,1.9797406E2,2.1456467E2,4.02415E1,0E0,0E0,0E0,0E0,0E0,0E0,0E0,0E0,0E0,0E0,0E0,0E0,0E0,0E0,0E0,0E0,0E0,0E0,0E0,0E0,0E0,0E0,0E0,0E0,0E0,0E0,0E0,0E0,0E0,0E0,0E0,0E0,0E0,0E0,0E0,0E0,0E0,0E0,0E0,0E0,0E0,0E0,0E0,0E0,0E0,0E0,0E0,0E0,0E0,0E0],"parents":[2147483647,0,0,1,1,2,2,3,3,4,4,5,5,6,6,7,7,8,8,9,9,10,10,11,11,12,12,13,13,14,14,15,15,16,16,17,17,18,18,19,19,21,21,22,22,23,23,24,24,25,25,26,26,27,27,28,28,29,29,30,30,31,31,32,32,33,33,34,34,36,36,38,38,41,41,42,42,43,43,44,44,45,45,46,46,47,47,49,49,50,50,51,51,52,52,53,53,54,54,55,55,56,56,57,57,58,58,59,59,60,60],"right_children":[2,4,6,8,10,12,14,16,18,20,22,24,26,28,30,32,34,36,38,40,-1,42,44,46,48,50,52,54,56,58,60,62,64,66,68,-1,70,-1,72,-1,-1,74,76,78,80,82,84,86,-1,88,90,92,94,96,98,100,102,104,106,108,110,-1,-1,-1,-1,-1,-1,-1,-1,-1,-1,-1,-1,-1,-1,-1,-1,-1,-1,-1,-1,-1,-1,-1,-1,-1,-1,-1,-1,-1,-1,-1,-1,-1,-1,-1,-1,-1,-1,-1,-1,-1,-1,-1,-1,-1,-1,-1,-1,-1,-1],"split_conditions":[1.1254E4,1.5E2,1.5E2,3.9551956E1,5.615E3,1.7357E4,1.9892E4,7.344E3,2E0,2.8212599E1,3.4859253E1,3.5418674E1,2.045209E1,2.8057865E1,4.2950832E1,7.5E1,2.3056763E1,4.146134E1,4.104743E1,2.4704615E1,1.2037642E1,2.8738115E1,9.252E3,3.2801643E1,4.487306E1,1.0882012E4,4.3448685E1,1.9491426E1,3.2537407E3,2.982E4,2.9196E4,5.539E3,5.615E3,7.622E3,2.0012E0,5.2420206E0,4.1782272E1,1.754823E0,4.1782272E1,3.7754552E0,2.4535103E-1,2E0,2E0,1.906855E-1,3.6003277E1,1.6560522E3,6.674939E3,4.063385E1,2.003499E0,4.5612666E3,2.8693383E0,2.5528E4,3.331394E3,2.0417261E3,5.991631E-1,1E0,1.7731E4,3.402528E1,2E0,2E2,1.4671501E4,1.7431744E0,-1.06089026E-1,8.7004624E-2,1.938943E0,4.4772208E-1,-1.4130169E0,-9.9148594E-2,1.2844173E0,1.8950844E-2,2.6086674E0,-1.3999776E0,6.042553E-1,2.2321048E0,9.062548E-2,2.1410327E0,4.4563994E0,2.8937867E0,7.607439E0,3.7446746E-1,4.4242187E0,3.4310263E-1,-7.236079E-1,-1.6303027E0,1.6247827E-1,2.5618404E-1,-5.018076E-1,-1.0339539E0,-2.1644924E0,-1.191512E0,5.028312E-1,-8.36258E-1,-1.1999031E0,7.949629E-1,-4.95455E-1,-2.4476202E0,-8.994716E-1,-2.6515737E-1,4.2086875E-1,2.7563865E0,5.781277E-1,1.2634939E0,1.7160368E-1,-5.819113E-1,1.0510561E-1,-1.3299768E0,-1.9220535E-1,7.0682056E-2,2.5362823E0,-7.5983363E-1,5.4434985E-1],"split_indices":[2,4,4,0,2,2,2,2,5,0,0,0,0,0,0,4,0,0,0,0,0,0,2,0,0,3,0,0,3,2,2,2,2,2,1,0,0,0,0,0,0,5,5,1,0,3,3,0,0,3,1,2,3,3,1,10,2,0,5,4,3,0,0,0,0,0,0,0,0,0,0,0,0,0,0,0,0,0,0,0,0,0,0,0,0,0,0,0,0,0,0,0,0,0,0,0,0,0,0,0,0,0,0,0,0,0,0,0,0,0,0],"split_type":[0,0,0,0,0,0,0,0,0,0,0,0,0,0,0,0,0,0,0,0,0,0,0,0,0,0,0,0,0,0,0,0,0,0,0,0,0,0,0,0,0,0,0,0,0,0,0,0,0,0,0,0,0,0,0,0,0,0,0,0,0,0,0,0,0,0,0,0,0,0,0,0,0,0,0,0,0,0,0,0,0,0,0,0,0,0,0,0,0,0,0,0,0,0,0,0,0,0,0,0,0,0,0,0,0,0,0,0,0,0,0],"sum_hessian":[1E3,2.31E2,7.69E2,1.42E2,8.9E1,4.43E2,3.26E2,1.23E2,1.9E1,9E0,8E1,1.13E2,3.3E2,1.04E2,2.22E2,3.5E1,8.8E1,1.1E1,8E0,2E0,7E0,5.3E1,2.7E1,6.8E1,4.5E1,2.2E1,3.08E2,3.2E1,7.2E1,1.99E2,2.3E1,1.1E1,2.4E1,1.5E1,7.3E1,4E0,7E0,2E0,6E0,1E0,1E0,2.3E1,3E1,1.4E1,1.3E1,5.2E1,1.6E1,4.4E1,1E0,1.9E1,3E0,2.9E2,1.8E1,8E0,2.4E1,2.1E1,5.1E1,1.33E2,6.6E1,1.3E1,1E1,2E0,9E0,4E0,2E1,2E0,1.3E1,5.8E1,1.5E1,1E0,6E0,1E0,5E0,1.2E1,1.1E1,1.7E1,1.3E1,2E0,1.2E1,2E0,1.1E1,5E0,4.7E1,1.4E1,2E0,2.7E1,1.7E1,6E0,1.3E1,2E0,1E0,1.41E2,1.49E2,3E0,1.5E1,2E0,6E0,9E0,1.5E1,1.6E1,5E0,3.1E1,2E1,7.9E1,5.4E1,4.6E1,2E1,5E0,8E0,8E0,2E0],"tree_param":{"num_deleted":"0","num_feature":"14","num_nodes":"111","size_leaf_vector":"1"}},{"base_weights":[2.515257E-1,1.0808457E1,-4.6904483E-1,6.705844E0,2.3763271E1,2.507246E0,-1.4394603E0,8.956192E0,2.5628445E0,1.2223832E1,9.699691E0,3.9350992E-1,6.3432603E0,-2.0010383E0,4.5048502E-1,1.2652176E1,4.4694486E0,4.6222334E0,-8.465941E-1,1.7078117E1,-4.6780473E-1,-1.13260195E-1,4.6447887E0,3.2036211E0,9.257115E0,-2.6285868E0,-1.3684771E0,-1.669559E0,1.5160991E0,4.829235E0,1.764531E1,-2.6293726E0,6.3098974E0,6.6647214E-1,7.3525667E0,1.270492E0,-1.4395705E0,5.590504E0,1.3940461E0,-2.422422E0,7.832848E-1,2.4381208E0,2.8067722E0,-1.707884E0,3.5683591E0,7.7942824E0,5.02052E0,-3.2488468E0,-2.090593E0,-1.8086196E0,7.457515E-2,-9.75007E-1,-4.07712E0,3.5068002E0,1.6599382E-1,1.9602959E0,-1.0659531E0,8.300572E-1,5.6973133E0,-1.2047299E0,-2.4859582E-1,9.7788624E-2,2.210476E0,4.1363963E-1,-4.342741E-1,9.378056E-1,2.5253947E0,-8.938122E-2,8.8147014E-1,-1.3460919E0,-2.64267E-1,-6.5859383E-1,3.7939867E-1,-3.7435457E-1,1.4970192E0,1.5570408E0,3.206666E-1,1.1483494E0,3.012665E0,-7.7394116E-1,-1.5107645E0,5.339398E-1,-6.628911E-1,-6.267034E-1,1.3543747E-1,1.0821294E0,-3.1719708E-1,5.2495533E-1,-5.177042E-1,-1.9998866E0,-3.8261607E-1,1.7340249E0,-1.3311368E-1,1.4043514E-1,-1.9003904E0],"categories":[],"categories_nodes":[],"categories_segments":[],"categories_sizes":[],"default_left":[0,0,0,0,0,0,0,0,0,0,0,0,0,0,0,0,0,0,0,0,0,0,0,0,0,0,0,0,0,0,0,0,0,0,0,0,0,0,0,0,0,0,0,0,0,0,0,0,0,0,0,0,0,0,0,0,0,0,0,0,0,0,0,0,0,0,0,0,0,0,0,0,0,0,0,0,0,0,0,0,0,0,0,0,0,0,0,0,0,0,0,0,0,0,0],"id":6,"left_children":[1,3,5,7,9,11,13,15,17,19,-1,21,23,25,27,29,31,33,35,37,-1,39,41,43,45,47,49,51,53,55,57,59,61,63,65,67,-1,-1,-1,69,71,-1,73,-1,75,77,-1,79,81,83,85,87,89,91,93,-1,-1,-1,-1,-1,-1,-1,-1,-1,-1,-1,-1,-1,-1,-1,-1,-1,-1,-1,-1,-1,-1,-1,-1,-1,-1,-1,-1,-1,-1,-1,-1,-1,-1,-1,-1,-1,-1,-1,-1],"loss_changes":[7.6196904E3,3.2421572E3,2.7127769E3,4.432063E2,1.0880029E3,1.8705262E3,7.523385E2,4.7410547E2,1.3731897E2,5.618906E2,0E0,3.236892E2,7.205171E2,2.1314453E2,3.7077246E2,5.788235E2,2.2563135E2,1.2470627E2,7.302989E1,2.9531982E1,0E0,2.8138354E2,7.9596985E1,1.5335599E2,3.2899976E2,8.430701E1,1.7416559E2,8.799448E1,2.9237238E2,1.3755931E2,1.4767871E2,6.65835E0,7.9928894E1,1.1031297E1,5.2064514E0,1.6569818E1,0E0,0E0,0E0,1.1698518E2,1.4329163E2,0E0,1.1245587E2,0E0,1.5659564E2,2.914641E2,0E0,1.3645886E2,7.2583984E1,1.3402155E2,2.6371362E2,9.302076E1,7.854784E1,3.9771246E2,1.3258876E2,0E0,0E0,0E0,0E0,0E0,0E0,0E0,0E0,0E0,0E0,0E0,0E0,0E0,0E0,0E0,0E0,0E0,0E0,0E0,0E0,0E0,0E0,0E0,0E0,0E0,0E0,0E0,0E0,0E0,0E0,0E0,0E0,0E0,0E0,0E0,0E0,0E0,0E0,0E0,0E0],"parents":[2147483647,0,0,1,1,2,2,3,3,4,4,5,5,6,6,7,7,8,8,9,9,11,11,12,12,13,13,14,14,15,15,16,16,17,17,18,18,19,19,21,21,22,22,23,23,24,24,25,25,26,26,27,27,28,28,29,29,30,30,31,31,32,32,33,33,34,34,35,35,39,39,40,40,42,42,44,44,45,45,47,47,48,48,49,49,50,50,51,51,52,52,53,53,54,54],"right_children":[2,4,6,8,10,12,14,16,18,20,-1,22,24,26,28,30,32,34,36,38,-1,40,42,44,46,48,50,52,54,56,58,60,62,64,66,68,-1,-1,-1,70,72,-1,74,-1,76,78,-1,80,82,84,86,88,90,92,94,-1,-1,-1,-1,-1,-1,-1,-1,-1,-1,-1,-1,-1,-1,-1,-1,-1,-1,-1,-1,-1,-1,-1,-1,-1,-1,-1,-1,-1,-1,-1,-1,-1,-1,-1,-1,-1,-1,-1,-1],"split_conditions":[7.046E3,2E2,1.3137E4,1.4793742E0,3.4257988E1,1.5E2,2E2,5.869E3,2.323968E3,3.273885E1,9.699691E0,4.1782272E1,3.242002E1,1E2,2.8965103E1,1E2,2.8057865E1,5.869E3,2.7061882E0,2.3835303E3,-4.6780473E-1,7.5E1,8.809E3,1.3567986E1,4.3274002E1,3.1563921E1,1E0,1.1217303E4,2.1984E4,2.323968E3,2.3833181E1,8.472024E-3,6.055E3,3.3720173E1,2.268524E1,1E0,-1.4395705E0,5.590504E0,1.3940461E0,2.6171306E3,2.369056E1,2.4381208E0,1.0556E4,-1.707884E0,1.0713E4,2E2,5.02052E0,2.9194004E1,3.177565E1,4.146134E1,1.861E4,2.9064113E-1,5.387609E-1,1E0,3.5505354E0,1.9602959E0,-1.0659531E0,8.300572E-1,5.6973133E0,-1.2047299E0,-2.4859582E-1,9.7788624E-2,2.210476E0,4.1363963E-1,-4.342741E-1,9.378056E-1,2.5253947E0,-8.938122E-2,8.8147014E-1,-1.3460919E0,-2.64267E-1,-6.5859383E-1,3.7939867E-1,-3.7435457E-1,1.4970192E0,1.5570408E0,3.206666E-1,1.1483494E0,3.012665E0,-7.7394116E-1,-1.5107645E0,5.339398E-1,-6.628911E-1,-6.267034E-1,1.3543747E-1,1.0821294E0,-3.1719708E-1,5.2495533E-1,-5.177042E-1,-1.9998866E0,-3.8261607E-1,1.7340249E0,-1.3311368E-1,1.4043514E-1,-1.9003904E0],"split_indices":[2,4,2,1,0,4,4,2,3,0,0,0,0,4,0,4,0,2,1,3,0,4,2,0,0,0,6,3,2,3,0,1,2,0,0,8,0,0,0,3,0,0,2,0,2,4,0,0,0,0,2,1,1,6,1,0,0,0,0,0,0,0,0,0,0,0,0,0,0,0,0,0,0,0,0,0,0,0,0,0,0,0,0,0,0,0,0,0,0,0,0,0,0,0,0],"split_type":[0,0,0,0,0,0,0,0,0,0,0,0,0,0,0,0,0,0,0,0,0,0,0,0,0,0,0,0,0,0,0,0,0,0,0,0,0,0,0,0,0,0,0,0,0,0,0,0,0,0,0,0,0,0,0,0,0,0,0,0,0,0,0,0,0,0,0,0,0,0,0,0,0,0,0,0,0,0,0,0,0,0,0,0,0,0,0,0,0,0,0,0,0,0,0],"sum_hessian":[1E3,6.3E1,9.37E2,4.9E1,1.4E1,2.3E2,7.07E2,3.1E1,1.8E1,7E0,7E0,1.49E2,8.1E1,5.45E2,1.62E2,1.6E1,1.5E1,1.1E1,7E0,5E0,2E0,1.34E2,1.5E1,4E1,4.1E1,2.72E2,2.73E2,5.4E1,1.08E2,7E0,9E0,3E0,1.2E1,5E0,6E0,5E0,2E0,4E0,1E0,3.7E1,9.7E1,4E0,1.1E1,1E0,3.9E1,3.6E1,5E0,1.24E2,1.48E2,2.09E2,6.4E1,4.3E1,1.1E1,4.3E1,6.5E1,6E0,1E0,1E0,8E0,1E0,2E0,2E0,1E1,4E0,1E0,2E0,4E0,3E0,2E0,1.5E1,2.2E1,1.3E1,8.4E1,4E0,7E0,2.3E1,1.6E1,1.4E1,2.2E1,9.2E1,3.2E1,4E0,1.44E2,1.86E2,2.3E1,1.5E1,4.9E1,9E0,3.4E1,5E0,6E0,2.7E1,1.6E1,6.3E1,2E0],"tree_param":{"num_deleted":"0","num_feature":"14","num_nodes":"95","size_leaf_vector":"1"}},{"base_weights":[2.0967102E-1,8.995887E0,-2.714794E-1,7.0993786E0,8.993743E0,2.28321E0,-9.173672E-1,9.886544E0,2.178245E0,5.3706056E-1,5.3188267E0,-1.321838E0,4.8117486E-1,3.1787622E0,1.2929358E1,7.617268E-1,5.1204133E0,-1.5276017E0,1.4780579E0,2.4492292E0,7.960968E0,-9.146712E-1,-2.1991155E0,1.4775939E0,-1.0498363E0,4.390525E0,-1.5161133E0,1.362918E1,-1.6006508E-1,2.9102669E0,-7.552696E-1,1.9337946E0,1.8690823E0,-1.803377E0,1.3427792E0,7.9484814E-1,6.5226455E0,5.3100686E0,9.167581E-1,4.68973E0,9.606027E0,-2.2694738E0,-5.835544E-1,-2.3270571E0,-3.175017E-1,7.380902E-1,7.662662E0,-2.4448864E0,-1.8190275E-1,7.837252E-1,1.7880167E0,2.2380926E-1,-9.060603E-1,1.5169164E0,4.4533777E0,1.7260037E-1,9.78656E-1,-7.111201E-1,-7.7123456E-2,1.2212815E0,-3.5107386E-1,-1.5684175E-1,-8.789253E-1,-1.7290105E0,3.1499422E-1,2.3858275E0,7.1678585E-1,1.938472E0,-8.949051E-2,-1.1839752E0,4.6148112E-1,2.8081892E0,-3.955206E-1,-1.1436682E0,3.1167693E0,-1.4327062E0,-5.8784556E-1,-5.5329764E-1,-6.374545E-2,-6.5184474E-1,-1.7089239E0,3.979654E-1,-4.5325616E-1,3.4143993E-1,-1.595668E0,1.0057769E0,2.893986E0,-8.9874864E-1,-3.791388E-1,1.1317353E0,-1.7183718E-1],"categories":[],"categories_nodes":[],"categories_segments":[],"categories_sizes":[],"default_left":[0,0,0,0,0,0,0,0,0,0,0,0,0,0,0,0,0,0,0,0,0,0,0,0,0,0,0,0,0,0,0,0,0,0,0,0,0,0,0,0,0,0,0,0,0,0,0,0,0,0,0,0,0,0,0,0,0,0,0,0,0,0,0,0,0,0,0,0,0,0,0,0,0,0,0,0,0,0,0,0,0,0,0,0,0,0,0,0,0,0,0],"id":7,"left_children":[1,3,5,7,-1,9,11,13,15,17,19,21,23,25,27,29,31,33,35,37,39,41,43,45,47,49,51,53,-1,55,57,59,-1,61,-1,63,65,67,69,71,73,75,77,79,81,83,85,87,89,-1,-1,-1,-1,-1,-1,-1,-1,-1,-1,-1,-1,-1,-1,-1,-1,-1,-1,-1,-1,-1,-1,-1,-1,-1,-1,-1,-1,-1,-1,-1,-1,-1,-1,-1,-1,-1,-1,-1,-1,-1,-1],"loss_changes":[4.234161E3,1.8565024E3,1.5696353E3,6.5054956E2,0E0,1.0148664E3,4.299792E2,5.916272E2,7.528472E1,2.4122739E2,5.112334E2,2.0837842E2,2.6241663E2,6.923636E1,2.0512646E2,4.782862E1,9.17215E0,7.264121E1,2.8776892E2,1.4857733E2,1.4867993E2,1.7990915E2,4.4038147E1,4.7002783E2,8.18904E1,9.546997E0,1.2460552E1,1.3332935E2,0E0,3.0533981E0,6.6324205E0,2.466534E1,0E0,5.3279564E1,0E0,1.3321568E2,4.011029E1,7.9424194E1,7.861395E1,4.052284E2,2.8131836E2,5.201703E1,1.5212189E2,7.804956E1,2.7509365E1,2.3382056E2,6.171985E1,1.3132416E1,6.862629E1,0E0,0E0,0E0,0E0,0E0,0E0,0E0,0E0,0E0,0E0,0E0,0E0,0E0,0E0,0E0,0E0,0E0,0E0,0E0,0E0,0E0,0E0,0E0,0E0,0E0,0E0,0E0,0E0,0E0,0E0,0E0,0E0,0E0,0E0,0E0,0E0,0E0,0E0,0E0,0E0,0E0,0E0],"parents":[2147483647,0,0,1,1,2,2,3,3,5,5,6,6,7,7,8,8,9,9,10,10,11,11,12,12,13,13,14,14,15,15,16,16,17,17,18,18,19,19,20,20,21,21,22,22,23,23,24,24,25,25,26,26,27,27,29,29,30,30,31,31,33,33,35,35,36,36,37,37,38,38,39,39,40,40,41,41,42,42,43,43,44,44,45,45,46,46,47,47,48,48],"right_children":[2,4,6,8,-1,10,12,14,16,18,20,22,24,26,28,30,32,34,36,38,40,42,44,46,48,50,52,54,-1,56,58,60,-1,62,-1,64,66,68,70,72,74,76,78,80,82,84,86,88,90,-1,-1,-1,-1,-1,-1,-1,-1,-1,-1,-1,-1,-1,-1,-1,-1,-1,-1,-1,-1,-1,-1,-1,-1,-1,-1,-1,-1,-1,-1,-1,-1,-1,-1,-1,-1,-1,-1,-1,-1,-1,-1],"split_conditions":[6.762E3,4.2586514E1,1.1669E4,1.4793742E0,8.993743E0,1.5E2,2E2,1E2,1E0,2.8281202E1,3.242002E1,2.8125E4,2.6789E4,2.323968E3,4.104743E1,2.7834595E1,6.055E3,4.48703E3,2.7883184E0,5.919879E-1,1.7595918E3,2.5406603E1,3.1087356E0,4.2950832E1,2.9604992E1,8.472024E-3,3.402528E1,2.8057865E1,-1.6006508E-1,1.5160421E0,2.8041304E1,2.9566164E1,1.8690823E0,9.187E3,1.3427792E0,1.0733387E3,3.2339156E0,3.1379694E1,1.9491426E1,1.4515479E3,3.327182E1,1.7101389E1,7.5E1,2.9736905E0,3.528005E0,3.4560907E0,4.351821E3,2E0,3.1271135E1,7.837252E-1,1.7880167E0,2.2380926E-1,-9.060603E-1,1.5169164E0,4.4533777E0,1.7260037E-1,9.78656E-1,-7.111201E-1,-7.7123456E-2,1.2212815E0,-3.5107386E-1,-1.5684175E-1,-8.789253E-1,-1.7290105E0,3.1499422E-1,2.3858275E0,7.1678585E-1,1.938472E0,-8.949051E-2,-1.1839752E0,4.6148112E-1,2.8081892E0,-3.955206E-1,-1.1436682E0,3.1167693E0,-1.4327062E0,-5.8784556E-1,-5.5329764E-1,-6.374545E-2,-6.5184474E-1,-1.7089239E0,3.979654E-1,-4.5325616E-1,3.4143993E-1,-1.595668E0,1.0057769E0,2.893986E0,-8.9874864E-1,-3.791388E-1,1.1317353E0,-1.7183718E-1],"split_indices":[2,0,2,1,0,4,4,4,6,0,0,2,2,3,0,0,2,3,1,1,3,0,1,0,0,1,0,0,0,1,0,0,0,2,0,3,1,0,0,3,0,0,4,1,1,1,3,5,0,0,0,0,0,0,0,0,0,0,0,0,0,0,0,0,0,0,0,0,0,0,0,0,0,0,0,0,0,0,0,0,0,0,0,0,0,0,0,0,0,0,0],"split_type":[0,0,0,0,0,0,0,0,0,0,0,0,0,0,0,0,0,0,0,0,0,0,0,0,0,0,0,0,0,0,0,0,0,0,0,0,0,0,0,0,0,0,0,0,0,0,0,0,0,0,0,0,0,0,0,0,0,0,0,0,0,0,0,0,0,0,0,0,0,0,0,0,0,0,0,0,0,0,0,0,0,0,0,0,0,0,0,0,0,0,0],"sum_hessian":[1E3,5.1E1,9.49E2,4.8E1,3E0,1.91E2,7.58E2,3E1,1.8E1,1.22E2,6.9E1,5.88E2,1.7E2,1E1,2E1,1.3E1,5E0,3.8E1,8.4E1,3.4E1,3.5E1,4.03E2,1.85E2,1.03E2,6.7E1,8E0,2E0,1.9E1,1E0,5E0,8E0,2E0,3E0,3.7E1,1E0,7.5E1,9E0,1.1E1,2.3E1,1.3E1,2.2E1,7.8E1,3.25E2,1.73E2,1.2E1,9.3E1,1E1,2.5E1,4.2E1,5E0,3E0,1E0,1E0,3E0,1.6E1,1E0,4E0,1E0,7E0,1E0,1E0,1.8E1,1.9E1,2E0,7.3E1,6E0,3E0,9E0,2E0,2E0,2.1E1,7E0,6E0,1E0,2.1E1,7E0,7.1E1,7.3E1,2.52E2,1.67E2,6E0,5E0,7E0,8.8E1,5E0,4E0,6E0,1.6E1,9E0,3E0,3.9E1],"tree_param":{"num_deleted":"0","num_feature":"14","num_nodes":"91","size_leaf_vector":"1"}},{"base_weights":[1.7132267E-1,5.530399E0,-2.6870012E-1,3.1960611E0,1.344392E1,8.499139E-1,-9.042088E-1,2.2327545E0,6.8632245E0,6.8879876E0,7.565575E0,-1.4044121E-1,2.5660608E0,-2.2002454E0,-6.791407E-1,6.3576536E0,1.3938986E0,1.7223305E0,2.7655141E0,1.0875083E1,2.443554E0,-3.5224453E-1,3.1614594E0,1.6916859E0,7.572599E0,-1.8495271E0,-3.896881E0,-7.750005E-1,2.299014E0,2.9680061E0,3.3053193E0,2.0214262E0,-8.1633186E-1,8.058203E-1,-3.198927E-1,3.786667E-1,3.680057E0,-2.984127E-1,3.3301482E0,-8.6420375E-1,6.471001E-1,4.284835E0,5.070915E-1,-3.1268694E0,2.1169443E0,5.330229E0,3.3506904E0,-2.1048777E0,1.3952587E0,-4.385354E0,3.679905E-1,-1.2027378E0,-2.3579282E-1,5.9669914E0,5.791057E-1,1.1124607E0,2.9752275E-1,8.695908E-2,1.1529285E0,7.724305E-1,-1.051858E0,1.3242874E0,-1.509636E-1,-3.2084757E-1,4.5855507E-1,8.7931406E-1,-1.675775E-1,1.7608162E0,-2.522194E-1,7.6067775E-1,-5.07132E-1,-1.6339477E0,-3.1779283E-1,1.0582043E0,3.6108845E-1,1.7733283E0,4.2709428E-1,-1.4688396E0,-5.430927E-1,-4.7208142E-1,9.819275E-1,-2.6497015E-1,-1.3810785E0,-6.427029E-2,-4.6276376E-1,-3.285553E-2,-1.2079253E0,5.156422E-2,2.2118397E0,4.6212703E-1,-3.2244712E-1],"categories":[],"categories_nodes":[],"categories_segments":[],"categories_sizes":[],"default_left":[0,0,0,0,0,0,0,0,0,0,0,0,0,0,0,0,0,0,0,0,0,0,0,0,0,0,0,0,0,0,0,0,0,0,0,0,0,0,0,0,0,0,0,0,0,0,0,0,0,0,0,0,0,0,0,0,0,0,0,0,0,0,0,0,0,0,0,0,0,0,0,0,0,0,0,0,0,0,0,0,0,0,0,0,0,0,0,0,0,0,0],"id":8,"left_children":[1,3,5,7,9,11,13,15,17,-1,19,21,23,25,27,29,31,33,-1,35,37,39,41,43,45,47,49,51,53,55,-1,57,59,-1,-1,-1,-1,-1,61,63,65,67,69,71,73,75,-1,77,79,81,-1,83,85,87,89,-1,-1,-1,-1,-1,-1,-1,-1,-1,-1,-1,-1,-1,-1,-1,-1,-1,-1,-1,-1,-1,-1,-1,-1,-1,-1,-1,-1,-1,-1,-1,-1,-1,-1,-1,-1],"loss_changes":[2.3619597E3,1.3609678E3,6.590516E2,1.9663226E2,7.7725E2,5.7142426E2,1.7089838E2,1.6068764E2,1.2941418E2,0E0,1.7684259E2,1.5077524E2,5.256333E2,4.4561157E1,1.4595193E2,9.366748E1,5.9903328E1,1.6301754E1,0E0,7.8168884E1,2.16026E1,1.0390722E2,3.6591278E1,2.238273E2,8.5625854E1,6.425012E1,4.0417007E1,1.12729614E2,9.748185E1,5.0993614E0,0E0,1.0297902E2,1.0024351E2,0E0,0E0,0E0,0E0,0E0,2.3000877E1,6.745516E1,1.91645E2,7.8030106E1,2.6574738E1,3.739412E1,1.2199249E2,2.1084229E1,0E0,4.7869446E1,3.8600727E1,5.869919E0,0E0,9.1370636E1,1.0390666E2,3.9466812E1,2.0735104E1,0E0,0E0,0E0,0E0,0E0,0E0,0E0,0E0,0E0,0E0,0E0,0E0,0E0,0E0,0E0,0E0,0E0,0E0,0E0,0E0,0E0,0E0,0E0,0E0,0E0,0E0,0E0,0E0,0E0,0E0,0E0,0E0,0E0,0E0,0E0,0E0],"parents":[2147483647,0,0,1,1,2,2,3,3,4,4,5,5,6,6,7,7,8,8,10,10,11,11,12,12,13,13,14,14,15,15,16,16,17,17,19,19,20,20,21,21,22,22,23,23,24,24,25,25,26,26,27,27,28,28,29,29,31,31,32,32,38,38,39,39,40,40,41,41,42,42,43,43,44,44,45,45,47,47,48,48,49,49,51,51,52,52,53,53,54,54],"right_children":[2,4,6,8,10,12,14,16,18,-1,20,22,24,26,28,30,32,34,-1,36,38,40,42,44,46,48,50,52,54,56,-1,58,60,-1,-1,-1,-1,-1,62,64,66,68,70,72,74,76,-1,78,80,82,-1,84,86,88,90,-1,-1,-1,-1,-1,-1,-1,-1,-1,-1,-1,-1,-1,-1,-1,-1,-1,-1,-1,-1,-1,-1,-1,-1,-1,-1,-1,-1,-1,-1,-1,-1,-1,-1,-1,-1],"split_conditions":[7.344E3,2E2,1.7357E4,1E0,1.1257764E3,1.5E2,2.4126879E1,5.407E3,7.5E1,6.8879876E0,8.895208E-1,4.3546978E1,3.8933243E1,1.1765689E4,4.7132317E1,2.1633884E3,3.5539764E1,3.1189934E3,2.7655141E0,2.1806065E1,1E0,1E2,1E0,1.9491426E1,4.5100124E1,3.3323E4,3.4671E4,1.5E2,2.529E4,1.4374519E3,3.3053193E0,2.8738115E1,1.4777662E3,8.058203E-1,-3.198927E-1,3.786667E-1,3.680057E0,-2.984127E-1,6.941E3,1.6543E4,1.0136E4,1.2642E4,4.466619E1,1.7101389E1,1.083E4,1E0,3.3506904E0,1.54198885E1,1.807961E1,1.863023E1,3.679905E-1,2.9194004E1,3.5505354E0,1.8781E4,2.9196E4,1.1124607E0,2.9752275E-1,8.695908E-2,1.1529285E0,7.724305E-1,-1.051858E0,1.3242874E0,-1.509636E-1,-3.2084757E-1,4.5855507E-1,8.7931406E-1,-1.675775E-1,1.7608162E0,-2.522194E-1,7.6067775E-1,-5.07132E-1,-1.6339477E0,-3.1779283E-1,1.0582043E0,3.6108845E-1,1.7733283E0,4.2709428E-1,-1.4688396E0,-5.430927E-1,-4.7208142E-1,9.819275E-1,-2.6497015E-1,-1.3810785E0,-6.427029E-2,-4.6276376E-1,-3.285553E-2,-1.2079253E0,5.156422E-2,2.2118397E0,4.6212703E-1,-3.2244712E-1],"split_indices":[2,4,2,6,3,4,0,2,4,0,1,0,0,3,0,3,0,3,0,0,5,4,10,0,0,2,2,4,2,3,0,0,3,0,0,0,0,0,2,2,2,2,0,0,2,12,0,0,0,0,0,0,1,2,2,0,0,0,0,0,0,0,0,0,0,0,0,0,0,0,0,0,0,0,0,0,0,0,0,0,0,0,0,0,0,0,0,0,0,0,0],"split_type":[0,0,0,0,0,0,0,0,0,0,0,0,0,0,0,0,0,0,0,0,0,0,0,0,0,0,0,0,0,0,0,0,0,0,0,0,0,0,0,0,0,0,0,0,0,0,0,0,0,0,0,0,0,0,0,0,0,0,0,0,0,0,0,0,0,0,0,0,0,0,0,0,0,0,0,0,0,0,0,0,0,0,0,0,0,0,0,0,0,0,0],"sum_hessian":[1E3,7.5E1,9.25E2,5.9E1,1.6E1,3.35E2,5.9E2,4.8E1,1.1E1,5E0,1.1E1,2.13E2,1.22E2,8.6E1,5.04E2,7E0,4.1E1,4E0,7E0,6E0,5E0,2.01E2,1.2E1,1.05E2,1.7E1,7.3E1,1.3E1,4.89E2,1.5E1,5E0,2E0,3.2E1,9E0,3E0,1E0,1E0,5E0,1E0,4E0,1.33E2,6.8E1,8E0,4E0,8E0,9.7E1,1.2E1,5E0,6.8E1,5E0,1.2E1,1E0,2.72E2,2.17E2,4E0,1.1E1,3E0,2E0,1.7E1,1.5E1,4E0,5E0,3E0,1E0,1.23E2,1E1,2.3E1,4.5E1,6E0,2E0,2E0,2E0,3E0,5E0,3.7E1,6E1,1E1,2E0,5E0,6.3E1,2E0,3E0,1E0,1.1E1,7E1,2.02E2,2.11E2,6E0,1E0,3E0,7E0,4E0],"tree_param":{"num_deleted":"0","num_feature":"14","num_nodes":"91","size_leaf_vector":"1"}},{"base_weights":[1.4613396E-1,5.146217E0,-1.2770863E-1,3.9208975E0,1.8869827E1,1.0234483E0,-5.139429E-1,1.8611033E0,6.364231E0,6.6787786E0,1.3037293E0,4.3802804E-1,3.6816893E0,-2.678038E-1,-1.2910978E0,4.8466736E-1,5.2416096E0,7.9549007E0,1.8192389E0,-4.366208E-2,3.7538025E0,2.5829325E0,7.545556E0,-5.48414E-1,6.440793E-1,-1.1794248E0,-2.1454933E0,1.5056775E0,-1.0439769E0,1.9774029E0,2.3848192E-1,9.187491E0,1.9602547E0,-1.1512502E-1,2.6160095E0,-1.5398703E0,3.7471712E-1,-1.1363611E0,4.225867E0,4.8145056E0,-2.0954583E0,1.9861584E0,9.994228E0,-2.2590923E-1,-1.0992005E0,1.1376797E0,-1.3361096E0,-3.056735E0,-1.0164664E0,5.682501E-1,-4.734295E-1,-8.1991255E-1,-5.128572E-2,2.9823143E0,2.1723175E-2,1.6483034E0,-1.2963021E0,1.13441855E-1,-1.6524811E-1,1.0302544E0,2.777504E-1,-9.0042716E-1,-1.3685594E-1,-5.761723E-2,5.5243593E-1,7.105464E-1,1.6150166E0,3.6147442E-1,1.7852291E0,-4.1701254E-2,-1.7920848E0,-2.0382959E-1,9.3034977E-1,6.394421E-1,3.3421457E0,-2.507309E-1,1.2133618E-1,-4.3207487E-1,-4.9069542E-2,4.2997074E-1,-9.3612283E-1,-9.104733E-1,-1.2374421E-1,-1.0991908E-2,-9.91607E-1,-3.8990995E-1,1.3919535E-2],"categories":[],"categories_nodes":[],"categories_segments":[],"categories_sizes":[],"default_left":[0,0,0,0,0,0,0,0,0,0,0,0,0,0,0,0,0,0,0,0,0,0,0,0,0,0,0,0,0,0,0,0,0,0,0,0,0,0,0,0,0,0,0,0,0,0,0,0,0,0,0,0,0,0,0,0,0,0,0,0,0,0,0,0,0,0,0,0,0,0,0,0,0,0,0,0,0,0,0,0,0,0,0,0,0,0,0],"id":9,"left_children":[1,3,5,7,9,11,13,15,17,-1,-1,19,21,23,25,27,29,31,33,35,37,39,41,43,45,47,-1,49,51,-1,-1,53,55,57,59,61,63,-1,65,67,69,71,73,75,77,79,81,83,85,-1,-1,-1,-1,-1,-1,-1,-1,-1,-1,-1,-1,-1,-1,-1,-1,-1,-1,-1,-1,-1,-1,-1,-1,-1,-1,-1,-1,-1,-1,-1,-1,-1,-1,-1,-1,-1,-1],"loss_changes":[1.3712621E3,8.004353E2,4.229115E2,2.3476099E2,1.0035901E2,3.703163E2,1.3585147E2,1.27744965E2,1.4457892E2,0E0,0E0,3.1480756E2,1.6306464E2,1.3904219E2,1.0347864E2,3.4347878E1,4.2774826E1,1.0021332E2,1.1089876E1,1.0887196E2,1.05010895E2,3.7549463E2,1.0266821E2,7.346866E1,1.2663008E2,4.8593964E1,0E0,1.8563374E1,1.2804135E1,0E0,0E0,8.857361E1,1.1253525E2,8.5303843E-1,3.7347832E0,5.8817543E1,1.1341162E2,0E0,3.884848E1,9.126398E1,9.021889E1,1.3995642E1,3.033075E1,1.0144405E2,4.858635E1,1.340982E2,3.954376E1,9.640076E0,4.7323395E1,0E0,0E0,0E0,0E0,0E0,0E0,0E0,0E0,0E0,0E0,0E0,0E0,0E0,0E0,0E0,0E0,0E0,0E0,0E0,0E0,0E0,0E0,0E0,0E0,0E0,0E0,0E0,0E0,0E0,0E0,0E0,0E0,0E0,0E0,0E0,0E0,0E0,0E0],"parents":[2147483647,0,0,1,1,2,2,3,3,4,4,5,5,6,6,7,7,8,8,11,11,12,12,13,13,14,14,15,15,16,16,17,17,18,18,19,19,20,20,21,21,22,22,23,23,24,24,25,25,27,27,28,28,31,31,32,32,33,33,34,34,35,35,36,36,38,38,39,39,40,40,41,41,42,42,43,43,44,44,45,45,46,46,47,47,48,48],"right_children":[2,4,6,8,10,12,14,16,18,-1,-1,20,22,24,26,28,30,32,34,36,38,40,42,44,46,48,-1,50,52,-1,-1,54,56,58,60,62,64,-1,66,68,70,72,74,76,78,80,82,84,86,-1,-1,-1,-1,-1,-1,-1,-1,-1,-1,-1,-1,-1,-1,-1,-1,-1,-1,-1,-1,-1,-1,-1,-1,-1,-1,-1,-1,-1,-1,-1,-1,-1,-1,-1,-1,-1,-1],"split_conditions":[6.762E3,4.2586514E1,1.311E4,1.5E2,5.615E3,2E2,1E0,3.8611027E1,1.4793742E0,6.6787786E0,1.3037293E0,3.9551956E1,1E0,2E2,3.5812828E1,2.323968E3,4.146134E1,1E0,1E0,7.5E1,7.221E3,1.0713E4,1E0,2.7294E4,1.1919851E4,1.7101389E1,-2.1454933E0,3.7049107E1,5.694E3,1.9774029E0,2.3848192E-1,4.104743E1,3.1144224E1,2.8212599E1,2.9604992E1,6.1746883E-1,2.0012E0,-1.1363611E0,1E2,2.7121521E1,1E0,3.4859253E1,9.252E3,1E2,1.147876E4,3.3376758E0,1E0,1.4802E4,2.5603032E0,5.682501E-1,-4.734295E-1,-8.1991255E-1,-5.128572E-2,2.9823143E0,2.1723175E-2,1.6483034E0,-1.2963021E0,1.13441855E-1,-1.6524811E-1,1.0302544E0,2.777504E-1,-9.0042716E-1,-1.3685594E-1,-5.761723E-2,5.5243593E-1,7.105464E-1,1.6150166E0,3.6147442E-1,1.7852291E0,-4.1701254E-2,-1.7920848E0,-2.0382959E-1,9.3034977E-1,6.394421E-1,3.3421457E0,-2.507309E-1,1.2133618E-1,-4.3207487E-1,-4.9069542E-2,4.2997074E-1,-9.3612283E-1,-9.104733E-1,-1.2374421E-1,-1.0991908E-2,-9.91607E-1,-3.8990995E-1,1.3919535E-2],"split_indices":[2,0,2,4,2,4,9,0,1,0,0,0,7,4,0,3,0,9,6,4,2,2,5,2,3,0,0,0,2,0,0,0,0,0,0,1,1,0,4,0,11,0,2,4,3,1,5,2,1,0,0,0,0,0,0,0,0,0,0,0,0,0,0,0,0,0,0,0,0,0,0,0,0,0,0,0,0,0,0,0,0,0,0,0,0,0,0],"split_type":[0,0,0,0,0,0,0,0,0,0,0,0,0,0,0,0,0,0,0,0,0,0,0,0,0,0,0,0,0,0,0,0,0,0,0,0,0,0,0,0,0,0,0,0,0,0,0,0,0,0,0,0,0,0,0,0,0,0,0,0,0,0,0,0,0,0,0,0,0,0,0,0,0,0,0,0,0,0,0,0,0,0,0,0,0,0,0],"sum_hessian":[1E3,5.1E1,9.49E2,4.8E1,3E0,2.38E2,7.11E2,2.7E1,2.1E1,2E0,1E0,1.96E2,4.2E1,5.41E2,1.7E2,2E1,7E0,1.5E1,6E0,1.72E2,2.4E1,3.4E1,8E0,4.14E2,1.27E2,1.68E2,2E0,1.2E1,8E0,5E0,2E0,1.2E1,3E0,2E0,4E0,3.7E1,1.35E2,1E0,2.3E1,2.3E1,1.1E1,3E0,5E0,2.62E2,1.52E2,1.02E2,2.5E1,1.2E1,1.56E2,1.1E1,1E0,2E0,6E0,1.1E1,1E0,2E0,1E0,1E0,1E0,2E0,2E0,1.5E1,2.2E1,9.8E1,3.7E1,1E1,1.3E1,6E0,1.7E1,8E0,3E0,1E0,2E0,1E0,4E0,1.33E2,1.29E2,1.11E2,4.1E1,9.6E1,6E0,8E0,1.7E1,1E0,1.1E1,1.23E2,3.3E1],"tree_param":{"num_deleted":"0","num_feature":"14","num_nodes":"87","size_leaf_vector":"1"}},{"base_weights":[1.1630673E-1,6.2805586E0,-1.5768297E-2,3.0180976E0,1.3933696E1,1.346059E0,-3.1312045E-1,1.3233494E0,6.481874E0,6.8490833E-1,4.742167E0,-8.165467E-1,2.11757E0,-5.132994E-1,5.2424884E-1,1.7402514E0,-4.89386E-1,2.189882E0,4.816418E-1,6.4552146E-1,-1.9234684E0,1.4334582E0,4.798883E0,-4.4658356E0,-4.7579396E-1,2.8260875E0,1.2524486E-1,3.7802696E-2,2.3739443E0,1.0894826E-2,1.334895E0,3.5638943E-1,-3.0831966E0,1.1245338E0,5.038601E0,7.433701E0,2.6875153E0,-1.475378E0,-3.3080694E-1,-1.727138E0,-3.8592046E-1,7.0758724E-1,3.9087818E0,2.2515264E0,-1.21806264E-1,2.833977E-1,-4.0241492E-1,2.9821417E-1,9.00922E-1,-1.0048954E0,1.1510507E-1,-3.3799955E-1,4.59861E-1,-1.360007E0,-4.7025308E-2,4.5988044E-1,-1.0984783E0,4.788702E-1,1.7760054E0,2.691181E0,1.035286E-1,-8.7804055E-1,1.2624797E0,2.6675206E-1,-5.431806E-1,5.8719184E-2,-1.7614473E-1,-5.3118993E-2,5.572999E-1,-9.3940735E-2,1.3747185E0,2.1424344E-1,1.7749332E0,5.169469E-1,-1.3828698E-1],"categories":[],"categories_nodes":[],"categories_segments":[],"categories_sizes":[],"default_left":[0,0,0,0,0,0,0,0,0,0,0,0,0,0,0,0,0,0,0,0,0,0,0,0,0,0,0,0,0,0,0,0,0,0,0,0,0,0,0,0,0,0,0,0,0,0,0,0,0,0,0,0,0,0,0,0,0,0,0,0,0,0,0,0,0,0,0,0,0,0,0,0,0,0,0],"id":10,"left_children":[1,3,5,7,9,11,13,15,17,-1,-1,19,21,23,25,27,-1,-1,-1,29,31,33,35,37,39,41,43,45,47,49,-1,51,53,55,57,59,61,-1,-1,63,65,67,69,71,73,-1,-1,-1,-1,-1,-1,-1,-1,-1,-1,-1,-1,-1,-1,-1,-1,-1,-1,-1,-1,-1,-1,-1,-1,-1,-1,-1,-1,-1,-1],"loss_changes":[8.1505695E2,4.8227606E2,3.9766983E2,8.534589E1,9.4878784E1,2.9538043E2,1.3537381E2,1.7620377E1,8.218643E0,0E0,0E0,7.73062E1,2.3158228E2,9.438045E1,1.4292311E2,1.1777382E1,0E0,0E0,0E0,5.064975E1,7.248725E1,1.112742E2,1.2466162E2,3.6997452E0,7.1984344E1,4.9989044E1,7.0664474E1,6.2700415E0,3.9598656E0,2.508791E1,0E0,1.917488E1,7.567807E1,1.9716962E2,1.4823547E1,1.1674371E2,1.4892435E2,0E0,0E0,1.0999756E1,7.081001E1,9.485687E0,4.409398E1,7.4656075E1,7.650638E1,0E0,0E0,0E0,0E0,0E0,0E0,0E0,0E0,0E0,0E0,0E0,0E0,0E0,0E0,0E0,0E0,0E0,0E0,0E0,0E0,0E0,0E0,0E0,0E0,0E0,0E0,0E0,0E0,0E0,0E0],"parents":[2147483647,0,0,1,1,2,2,3,3,4,4,5,5,6,6,7,7,8,8,11,11,12,12,13,13,14,14,15,15,19,19,20,20,21,21,22,22,23,23,24,24,25,25,26,26,27,27,28,28,29,29,31,31,32,32,33,33,34,34,35,35,36,36,39,39,40,40,41,41,42,42,43,43,44,44],"right_children":[2,4,6,8,10,12,14,16,18,-1,-1,20,22,24,26,28,-1,-1,-1,30,32,34,36,38,40,42,44,46,48,50,-1,52,54,56,58,60,62,-1,-1,64,66,68,70,72,74,-1,-1,-1,-1,-1,-1,-1,-1,-1,-1,-1,-1,-1,-1,-1,-1,-1,-1,-1,-1,-1,-1,-1,-1,-1,-1,-1,-1,-1,-1],"split_conditions":[5.615E3,2E2,1.041E4,1E0,2.9566164E1,2.7121521E1,3.9355705E1,2.323968E3,3.980402E1,6.8490833E-1,4.742167E0,8.409E3,2E2,1.0638E4,3.1189934E3,1.0865605E3,-4.89386E-1,2.189882E0,4.816418E-1,3.272721E3,4.590861E-1,3.894066E3,3.4152683E1,1E0,2.0237608E1,1E2,1.3589E4,8.472024E-3,3.1144224E1,8.472024E-3,1.334895E0,1E0,9.755E3,3.4244827E3,3.0009375E1,1E0,3.4425014E1,-1.475378E0,-3.3080694E-1,1.2129E4,1.6725E4,1.8063279E0,1.0556E4,4.466619E1,4.0036343E1,2.833977E-1,-4.0241492E-1,2.9821417E-1,9.00922E-1,-1.0048954E0,1.1510507E-1,-3.3799955E-1,4.59861E-1,-1.360007E0,-4.7025308E-2,4.5988044E-1,-1.0984783E0,4.788702E-1,1.7760054E0,2.691181E0,1.035286E-1,-8.7804055E-1,1.2624797E0,2.6675206E-1,-5.431806E-1,5.8719184E-2,-1.7614473E-1,-5.3118993E-2,5.572999E-1,-9.3940735E-2,1.3747185E0,2.1424344E-1,1.7749332E0,5.169469E-1,-1.3828698E-1],"split_indices":[2,4,2,10,0,0,0,3,0,0,0,2,4,2,3,3,0,0,0,3,1,3,0,12,0,4,2,1,0,1,0,5,2,3,0,11,0,0,0,2,2,1,2,0,0,0,0,0,0,0,0,0,0,0,0,0,0,0,0,0,0,0,0,0,0,0,0,0,0,0,0,0,0,0,0],"split_type":[0,0,0,0,0,0,0,0,0,0,0,0,0,0,0,0,0,0,0,0,0,0,0,0,0,0,0,0,0,0,0,0,0,0,0,0,0,0,0,0,0,0,0,0,0,0,0,0,0,0,0,0,0,0,0,0,0,0,0,0,0,0,0,0,0,0,0,0,0,0,0,0,0,0,0],"sum_hessian":[1E3,2E1,9.8E2,1.5E1,5E0,1.75E2,8.05E2,1.1E1,4E0,1E0,4E0,4.6E1,1.29E2,6.5E2,1.55E2,1E1,1E0,3E0,1E0,2E1,2.6E1,1.04E2,2.5E1,5E0,6.45E2,2.2E1,1.33E2,3E0,7E0,1.8E1,2E0,9E0,1.7E1,9.7E1,7E0,1E1,1.5E1,4E0,1E0,4.2E1,6.03E2,8E0,1.4E1,1.3E1,1.2E2,2E0,1E0,3E0,4E0,1E0,1.7E1,4E0,5E0,1.1E1,6E0,9E1,7E0,2E0,5E0,8E0,2E0,3E0,1.2E1,1E0,4.1E1,1.55E2,4.48E2,5E0,3E0,2E0,1.2E1,1E1,3E0,1.8E1,1.02E2],"tree_param":{"num_deleted":"0","num_feature":"14","num_nodes":"75","size_leaf_vector":"1"}},{"base_weights":[9.5997624E-2,4.810168E0,-5.015193E-3,3.0035596E0,4.3945894E0,9.776548E-1,-2.1514733E-1,1.697613E0,5.5501747E0,5.257934E-1,3.0305107E0,-8.9697707E-1,-5.603759E-2,5.4377025E-1,3.1454418E0,1.8343049E0,4.0939525E-1,3.0269805E-1,3.4626918E0,7.263194E-1,4.093158E0,2.650858E-1,-1.5335072E0,-1.2260839E-1,1.9659452E0,1.4210669E0,-5.0535357E-1,9.083074E-1,1.2110796E0,-1.3283502E-1,1.4920057E0,7.3841584E-1,2.2093506E0,-2.0249968E0,2.1489491E0,4.633981E0,1.4357269E0,9.018331E-1,-1.0938857E0,-2.8281572E0,-9.2962813E-1,-3.2953134E-1,4.477595E-1,3.6382742E0,4.085091E-1,5.1692966E-2,4.8014244E-1,3.2815993E-1,8.0578424E-2,-1.8916647E-1,4.9135378E-1,-5.86089E-2,1.0168141E0,-5.034422E-1,8.9111054E-1,-1.699932E-1,8.696034E-1,1.8205148E0,6.785198E-1,7.442145E-1,-4.116337E-1,1.4494678E-1,7.2344345E-1,-5.088624E-2,-1.2859223E0,-3.6993062E-1,-1.131198E0,-8.8843465E-1,-1.075779E-1,-4.7182072E-2,-5.2047247E-1,8.026713E-1,4.491596E-2,3.7726745E-1,2.632228E0,3.1850046E-1,-3.4896785E-1],"categories":[],"categories_nodes":[],"categories_segments":[],"categories_sizes":[],"default_left":[0,0,0,0,0,0,0,0,0,0,0,0,0,0,0,0,0,0,0,0,0,0,0,0,0,0,0,0,0,0,0,0,0,0,0,0,0,0,0,0,0,0,0,0,0,0,0,0,0,0,0,0,0,0,0,0,0,0,0,0,0,0,0,0,0,0,0,0,0,0,0,0,0,0,0,0,0],"id":11,"left_children":[1,3,5,7,-1,9,11,13,15,17,19,21,23,25,27,-1,-1,29,31,33,35,37,39,41,43,45,-1,47,-1,49,51,53,-1,-1,55,57,59,61,63,65,67,69,71,73,75,-1,-1,-1,-1,-1,-1,-1,-1,-1,-1,-1,-1,-1,-1,-1,-1,-1,-1,-1,-1,-1,-1,-1,-1,-1,-1,-1,-1,-1,-1,-1,-1],"loss_changes":[4.766919E2,3.2926123E2,2.0277759E2,5.3767075E1,0E0,1.5888249E2,8.7714714E1,2.1677532E1,5.8242493E0,9.264665E1,7.2931885E1,1.13578766E2,8.8676544E1,1.9987583E1,8.299526E0,0E0,0E0,6.960789E1,1.00858E2,1.3150157E2,2.3528076E1,4.8579185E1,7.477025E1,7.532769E1,5.3209198E1,1.2924795E0,0E0,6.2306643E-2,0E0,8.8281746E1,1.159187E2,4.274017E1,0E0,0E0,2.2002106E1,4.4121765E1,1.807461E1,2.2852932E1,5.2386185E1,4.1954086E1,7.899466E1,1.1302388E2,1.1247536E2,1.1123532E2,1.3554078E1,0E0,0E0,0E0,0E0,0E0,0E0,0E0,0E0,0E0,0E0,0E0,0E0,0E0,0E0,0E0,0E0,0E0,0E0,0E0,0E0,0E0,0E0,0E0,0E0,0E0,0E0,0E0,0E0,0E0,0E0,0E0,0E0],"parents":[2147483647,0,0,1,1,2,2,3,3,5,5,6,6,7,7,8,8,9,9,10,10,11,11,12,12,13,13,14,14,17,17,18,18,19,19,20,20,21,21,22,22,23,23,24,24,25,25,27,27,29,29,30,30,31,31,34,34,35,35,36,36,37,37,38,38,39,39,40,40,41,41,42,42,43,43,44,44],"right_children":[2,4,6,8,-1,10,12,14,16,18,20,22,24,26,28,-1,-1,30,32,34,36,38,40,42,44,46,-1,48,-1,50,52,54,-1,-1,56,58,60,62,64,66,68,70,72,74,76,-1,-1,-1,-1,-1,-1,-1,-1,-1,-1,-1,-1,-1,-1,-1,-1,-1,-1,-1,-1,-1,-1,-1,-1,-1,-1,-1,-1,-1,-1,-1,-1],"split_conditions":[5.615E3,4.2586514E1,1.0388E4,1E0,4.3945894E0,2E2,7.5E1,3.8611027E1,3.980402E1,4.1782272E1,1.5159155E3,1E0,4.6441696E1,3.4152683E1,7.5E1,1.8343049E0,4.0939525E-1,1E0,1E2,3.5387164E-1,1E0,8.01744E3,5.173085E3,2.0608268E0,2.529E4,5.191E3,-5.0535357E-1,3.9271805E1,1.2110796E0,9.532E3,1E2,1.2356285E0,2.2093506E0,-2.0249968E0,2.6091602E1,2.7922603E3,1.5058043E0,1E0,3.6485386E1,3.4944949E3,3.733971E-1,1.626438E0,2.7374758E3,6.3283486E3,1E0,5.1692966E-2,4.8014244E-1,3.2815993E-1,8.0578424E-2,-1.8916647E-1,4.9135378E-1,-5.86089E-2,1.0168141E0,-5.034422E-1,8.9111054E-1,-1.699932E-1,8.696034E-1,1.8205148E0,6.785198E-1,7.442145E-1,-4.116337E-1,1.4494678E-1,7.2344345E-1,-5.088624E-2,-1.2859223E0,-3.6993062E-1,-1.131198E0,-8.8843465E-1,-1.075779E-1,-4.7182072E-2,-5.2047247E-1,8.026713E-1,4.491596E-2,3.7726745E-1,2.632228E0,3.1850046E-1,-3.4896785E-1],"split_indices":[2,0,2,10,0,4,4,0,0,0,3,5,0,0,4,0,0,6,4,1,11,3,3,1,2,2,0,0,0,2,4,1,0,0,0,3,1,8,0,3,1,1,3,3,10,0,0,0,0,0,0,0,0,0,0,0,0,0,0,0,0,0,0,0,0,0,0,0,0,0,0,0,0,0,0,0,0],"split_type":[0,0,0,0,0,0,0,0,0,0,0,0,0,0,0,0,0,0,0,0,0,0,0,0,0,0,0,0,0,0,0,0,0,0,0,0,0,0,0,0,0,0,0,0,0,0,0,0,0,0,0,0,0,0,0,0,0,0,0,0,0,0,0,0,0,0,0,0,0,0,0,0,0,0,0,0,0],"sum_hessian":[1E3,2E1,9.8E2,1.8E1,2E0,1.72E2,8.08E2,1.3E1,5E0,1.42E2,3E1,1.52E2,6.56E2,8E0,5E0,4E0,1E0,1.33E2,9E0,1E1,2E1,5.4E1,9.8E1,6.36E2,2E1,6E0,2E0,2E0,3E0,9.8E1,3.5E1,6E0,3E0,1E0,9E0,1.6E1,4E0,3.7E1,1.7E1,3E1,6.8E1,4.67E2,1.69E2,9E0,1.1E1,1E0,5E0,1E0,1E0,7.7E1,2.1E1,1.9E1,1.6E1,3E0,3E0,2E0,7E0,9E0,7E0,3E0,1E0,3E1,7E0,1.4E1,3E0,1.2E1,1.8E1,1.4E1,5.4E1,4.17E2,5E1,1.9E1,1.5E2,7E0,2E0,8E0,3E0],"tree_param":{"num_deleted":"0","num_feature":"14","num_nodes":"77","size_leaf_vector":"1"}},{"base_weights":[8.1125915E-2,1.9436287E0,-8.717535E-2,1.4987893E0,8.583365E0,-1.290678E-1,2.8423343E0,-7.201531E-1,1.9877946E0,3.515671E0,7.760121E-1,-2.8835154E-1,4.4646424E-1,8.286374E-1,5.8985214E0,-4.385376E-2,-1.0232198E0,2.2998853E0,-2.2172718E0,-2.3960361E-1,-1.6164107E0,1.2186055E0,-2.4168436E-1,2.2040749E0,-7.1252745E-1,2.5296814E0,1.3985977E0,-6.3074154E-1,1.021315E0,2.546315E0,-1.8483152E0,4.6143088E-1,-1.2470652E0,-3.080415E-1,1.6638288E0,-2.2652318E0,8.157284E-1,4.6863914E-1,3.932551E0,-1.2374385E-2,-1.8635415E0,9.244217E-1,-1.9578725E-1,-3.292358E-1,1.2407599E-1,1.2531939E-1,5.040496E-1,7.371598E-2,-3.329777E-1,3.4874725E-1,6.849175E-2,6.20995E-1,1.3180113E0,-6.831665E-2,-1.0065142E0,3.8871232E-1,-1.8106842E-1,-6.466287E-2,-3.608091E-1,2.7298868E-1,1.3039589E0,-8.900128E-1,-2.5265318E-1,7.003941E-1,-1.0168296E0,-1.2849371E-1,6.731389E-1,2.5393867E-1,1.6587536E0,1.3703588E-1,-3.716802E-1,-1.0586073E0,2.0017435E-1],"categories":[],"categories_nodes":[],"categories_segments":[],"categories_sizes":[],"default_left":[0,0,0,0,0,0,0,0,0,0,0,0,0,0,0,0,0,0,0,0,0,0,0,0,0,0,0,0,0,0,0,0,0,0,0,0,0,0,0,0,0,0,0,0,0,0,0,0,0,0,0,0,0,0,0,0,0,0,0,0,0,0,0,0,0,0,0,0,0,0,0,0,0],"id":12,"left_children":[1,3,5,7,9,11,13,15,17,-1,-1,19,21,23,25,27,-1,29,31,33,35,37,39,41,43,-1,45,47,49,51,53,55,-1,57,59,61,63,65,67,69,71,-1,-1,-1,-1,-1,-1,-1,-1,-1,-1,-1,-1,-1,-1,-1,-1,-1,-1,-1,-1,-1,-1,-1,-1,-1,-1,-1,-1,-1,-1,-1,-1],"loss_changes":[3.1394446E2,2.3228552E2,1.131505E2,8.715239E1,6.370038E1,8.327606E1,7.5117325E1,2.7144981E1,9.0403046E1,0E0,0E0,4.564294E1,1.0497007E2,2.0648447E1,4.5215027E1,8.770935E0,0E0,6.706299E1,2.7896336E1,9.0005905E1,4.12984E1,1.8744626E2,3.9027283E1,1.4542351E1,2.6212401E0,0E0,1.2668276E-1,4.052608E0,2.943654E-1,4.1934845E1,9.00318E0,3.447534E0,0E0,5.4689682E1,4.4582382E1,1.7466316E1,4.62369E1,1.1878607E2,9.3866455E1,5.40831E1,5.713836E1,0E0,0E0,0E0,0E0,0E0,0E0,0E0,0E0,0E0,0E0,0E0,0E0,0E0,0E0,0E0,0E0,0E0,0E0,0E0,0E0,0E0,0E0,0E0,0E0,0E0,0E0,0E0,0E0,0E0,0E0,0E0,0E0],"parents":[2147483647,0,0,1,1,2,2,3,3,4,4,5,5,6,6,7,7,8,8,11,11,12,12,13,13,14,14,15,15,17,17,18,18,19,19,20,20,21,21,22,22,23,23,24,24,26,26,27,27,28,28,29,29,30,30,31,31,33,33,34,34,35,35,36,36,37,37,38,38,39,39,40,40],"right_children":[2,4,6,8,10,12,14,16,18,-1,-1,20,22,24,26,28,-1,30,32,34,36,38,40,42,44,-1,46,48,50,52,54,56,-1,58,60,62,64,66,68,70,72,-1,-1,-1,-1,-1,-1,-1,-1,-1,-1,-1,-1,-1,-1,-1,-1,-1,-1,-1,-1,-1,-1,-1,-1,-1,-1,-1,-1,-1,-1,-1,-1],"split_conditions":[7.571E3,4.2726746E1,4.8716568E1,7.5E1,5.615E3,2E2,1E0,7.307E3,3.3510456E0,3.515671E0,7.760121E-1,1.4056584E4,2.1241E4,4.4234673E3,5.292723E1,1E0,-1.0232198E0,4.146134E1,6.432E3,1.2137142E4,1E0,1E0,4.2213608E1,5.292723E1,1.9151747E0,2.5296814E0,1.6696285E0,2.7834595E1,3.9271805E1,7.221E3,6.941E3,2.0971905E1,-1.2470652E0,1.0151131E4,3.794119E1,1.5445146E4,3.8438774E1,1E0,1E0,1.1364216E4,1.2608301E4,9.244217E-1,-1.9578725E-1,-3.292358E-1,1.2407599E-1,1.2531939E-1,5.040496E-1,7.371598E-2,-3.329777E-1,3.4874725E-1,6.849175E-2,6.20995E-1,1.3180113E0,-6.831665E-2,-1.0065142E0,3.8871232E-1,-1.8106842E-1,-6.466287E-2,-3.608091E-1,2.7298868E-1,1.3039589E0,-8.900128E-1,-2.5265318E-1,7.003941E-1,-1.0168296E0,-1.2849371E-1,6.731389E-1,2.5393867E-1,1.6587536E0,1.3703588E-1,-3.716802E-1,-1.0586073E0,2.0017435E-1],"split_indices":[2,0,0,4,2,4,5,2,1,0,0,3,2,3,0,12,0,0,2,3,12,7,0,0,1,0,1,0,0,2,2,0,0,3,0,3,0,8,5,3,3,0,0,0,0,0,0,0,0,0,0,0,0,0,0,0,0,0,0,0,0,0,0,0,0,0,0,0,0,0,0,0,0],"split_type":[0,0,0,0,0,0,0,0,0,0,0,0,0,0,0,0,0,0,0,0,0,0,0,0,0,0,0,0,0,0,0,0,0,0,0,0,0,0,0,0,0,0,0,0,0,0,0,0,0,0,0,0,0,0,0,0,0,0,0,0,0,0,0,0,0,0,0,0,0,0,0,0,0],"sum_hessian":[1E3,8.2E1,9.18E2,7.8E1,4E0,9.06E2,1.2E1,1.4E1,6.4E1,2E0,2E0,7.1E2,1.96E2,8E0,4E0,1.2E1,2E0,6E1,4E0,6.86E2,2.4E1,9.2E1,1.04E2,4E0,4E0,2E0,2E0,8E0,4E0,5.7E1,3E0,2E0,2E0,6.63E2,2.3E1,1.9E1,5E0,7.3E1,1.9E1,9.2E1,1.2E1,3E0,1E0,3E0,1E0,1E0,1E0,3E0,5E0,3E0,1E0,4.7E1,1E1,2E0,1E0,1E0,1E0,6.02E2,6.1E1,1.9E1,4E0,1.2E1,7E0,4E0,1E0,4.9E1,2.4E1,7E0,1.2E1,6.7E1,2.5E1,7E0,5E0],"tree_param":{"num_deleted":"0","num_feature":"14","num_nodes":"73","size_leaf_vector":"1"}},{"base_weights":[6.47705E-2,4.90703E0,2.081772E-2,6.87402E0,7.297878E-1,-5.866936E-2,1.1029385E0,5.8217812E-2,2.4513602E0,-4.9210742E-2,3.247223E-1,-8.0743504E-1,3.499755E-2,2.6107233E0,3.7370026E-1,3.054027E-1,-1.1311934E0,-8.5111864E-2,7.073303E-1,8.9347214E-1,4.9919224E0,-1.19702026E-1,2.211259E0,-1.1027362E0,2.387071E0,-1.725999E0,-5.519407E-1,9.219591E-1,-1.7752942E-1,3.4924366E0,2.0616816E-1,-3.002076E-1,2.1300387E0,5.330368E-1,1.6970114E0,9.899706E-1,-5.513698E-1,3.4690022E0,-5.426066E-1,2.4666378E-1,-5.632393E-1,-4.9099732E-2,8.0660135E-1,-6.471389E-1,-2.4061279E-1,2.785135E-1,-3.5250428E-1,-3.300461E-2,7.294518E-1,7.2870694E-2,-1.064391E-1,-1.8090548E-1,1.6287098E0,4.9903587E-1,-1.7636235E-1,5.6792796E-1,-5.98442E-1,9.300103E-1,-5.89901E-2,4.7769314E-1,-1.3866052E-1,-4.1344753E-1,1.5258878E-1,5.2934486E-1,1.5460602E0,-2.1610214E-1,-1.4107705E-3],"categories":[],"categories_nodes":[],"categories_segments":[],"categories_sizes":[],"default_left":[0,0,0,0,0,0,0,0,0,0,0,0,0,0,0,0,0,0,0,0,0,0,0,0,0,0,0,0,0,0,0,0,0,0,0,0,0,0,0,0,0,0,0,0,0,0,0,0,0,0,0,0,0,0,0,0,0,0,0,0,0,0,0,0,0,0,0],"id":13,"left_children":[1,3,5,7,9,11,13,-1,-1,-1,-1,15,17,19,21,23,25,27,29,31,33,35,37,39,41,43,45,47,49,51,53,55,57,-1,-1,59,61,63,65,-1,-1,-1,-1,-1,-1,-1,-1,-1,-1,-1,-1,-1,-1,-1,-1,-1,-1,-1,-1,-1,-1,-1,-1,-1,-1,-1,-1],"loss_changes":[2.1294144E2,6.893277E1,8.547723E1,5.0405E1,1.4382734E0,6.497287E1,7.379272E1,0E0,0E0,0E0,0E0,3.745539E1,6.660108E1,8.550041E1,4.287751E1,7.298298E1,2.6610779E1,6.53134E1,1.737537E2,2.130436E1,9.185501E0,1.8748217E1,3.6518867E1,2.3913351E1,8.13308E0,1.3805382E1,3.9829456E1,9.2178505E1,4.793374E1,1.5396738E2,1.2479254E2,3.3510475E1,1.6407602E1,0E0,0E0,1.0357682E1,2.5240036E1,1.100589E1,3.790276E-1,0E0,0E0,0E0,0E0,0E0,0E0,0E0,0E0,0E0,0E0,0E0,0E0,0E0,0E0,0E0,0E0,0E0,0E0,0E0,0E0,0E0,0E0,0E0,0E0,0E0,0E0,0E0,0E0],"parents":[2147483647,0,0,1,1,2,2,3,3,4,4,5,5,6,6,11,11,12,12,13,13,14,14,15,15,16,16,17,17,18,18,19,19,20,20,21,21,22,22,23,23,24,24,25,25,26,26,27,27,28,28,29,29,30,30,31,31,32,32,35,35,36,36,37,37,38,38],"right_children":[2,4,6,8,10,12,14,-1,-1,-1,-1,16,18,20,22,24,26,28,30,32,34,36,38,40,42,44,46,48,50,52,54,56,58,-1,-1,60,62,64,66,-1,-1,-1,-1,-1,-1,-1,-1,-1,-1,-1,-1,-1,-1,-1,-1,-1,-1,-1,-1,-1,-1,-1,-1,-1,-1,-1,-1],"split_conditions":[5.299E3,2.5792494E-1,4.3274002E1,7.5E1,2.8212599E1,2.251632E1,1.3589E4,5.8217812E-2,2.4513602E0,-4.9210742E-2,3.247223E-1,3.3389318E-1,2.846847E0,1.5E2,1.1149619E4,1.1488252E-1,1.7938068E0,7.571E3,2.9736905E0,1.0556E4,1E0,1E2,3.1904E4,1.3589E4,7.307E3,2.1263954E1,2.2827513E0,1.5E2,2.9236023E1,2.9710789E1,1.4923E4,8.809E3,1.2843E4,5.330368E-1,1.6970114E0,1E0,4.7132317E1,4.487306E1,3.376056E-1,2.4666378E-1,-5.632393E-1,-4.9099732E-2,8.0660135E-1,-6.471389E-1,-2.4061279E-1,2.785135E-1,-3.5250428E-1,-3.300461E-2,7.294518E-1,7.2870694E-2,-1.064391E-1,-1.8090548E-1,1.6287098E0,4.9903587E-1,-1.7636235E-1,5.6792796E-1,-5.98442E-1,9.300103E-1,-5.89901E-2,4.7769314E-1,-1.3866052E-1,-4.1344753E-1,1.5258878E-1,5.2934486E-1,1.5460602E0,-2.1610214E-1,-1.4107705E-3],"split_indices":[2,1,0,4,0,0,2,0,0,0,0,1,1,4,3,1,1,2,1,2,5,4,2,2,2,0,1,4,0,0,2,2,2,0,0,12,0,0,1,0,0,0,0,0,0,0,0,0,0,0,0,0,0,0,0,0,0,0,0,0,0,0,0,0,0,0,0],"split_type":[0,0,0,0,0,0,0,0,0,0,0,0,0,0,0,0,0,0,0,0,0,0,0,0,0,0,0,0,0,0,0,0,0,0,0,0,0,0,0,0,0,0,0,0,0,0,0,0,0,0,0,0,0,0,0,0,0,0,0,0,0,0,0,0,0,0,0],"sum_hessian":[1E3,8E0,9.92E2,5E0,3E0,9.25E2,6.7E1,1E0,4E0,1E0,2E0,1.02E2,8.23E2,2.1E1,4.6E1,2.3E1,7.9E1,6.99E2,1.24E2,1.3E1,8E0,3.7E1,9E0,1.4E1,9E0,3.8E1,4.1E1,5.8E1,6.41E2,1.8E1,1.06E2,7E0,6E0,2E0,6E0,1E1,2.7E1,6E0,3E0,4E0,1E1,1E0,8E0,2.5E1,1.3E1,1.2E1,2.9E1,3.5E1,2.3E1,1.9E2,4.51E2,6E0,1.2E1,3.7E1,6.9E1,3E0,4E0,4E0,2E0,7E0,3E0,1.5E1,1.2E1,4E0,2E0,2E0,1E0],"tree_param":{"num_deleted":"0","num_feature":"14","num_nodes":"67","size_leaf_vector":"1"}},{"base_weights":[5.503385E-2,3.1599734E0,1.4165048E-2,1.9545355E0,2.6437845E0,-1.0081016E-1,5.245266E-1,3.734352E-1,2.6984062E0,-7.278984E-2,-2.8937438E0,1.2870932E0,-3.4361638E-2,1.7026806E-1,1.7791557E-1,3.1237302E0,-4.1829303E-2,-5.307816E-2,-2.675741E0,-1.4461762E0,-7.7352047E-1,7.2139144E-1,2.5838978E0,-2.5844124E-1,1.7424654E0,9.917641E-2,-4.6603777E-2,1.0227219E0,2.1175118E-1,-1.2126638E0,-1.5458058E-2,1.3898908E-1,-3.3962078E0,-8.6988E-1,4.8289943E-1,4.0567857E-1,2.5254948E0,5.3709245E0,1.714475E0,6.6253227E-1,-5.4507065E-1,1.4784604E0,6.124981E-1,-1.0838794E0,-2.540583E-1,-5.4851826E-2,9.388524E-2,-3.058903E-1,-1.1206329E0,3.3771616E-1,-3.1984333E-2,3.5550955E-1,-1.478903E-1,8.8778484E-1,-7.66531E-2,1.8789294E0,2.7033463E-1,3.2841983E-1,8.6243844E-1,-2.5120988E-1,4.554908E-1,-8.395055E-1,4.0956937E-2,5.344729E-1,-1.39145E-1],"categories":[],"categories_nodes":[],"categories_segments":[],"categories_sizes":[],"default_left":[0,0,0,0,0,0,0,0,0,0,0,0,0,0,0,0,0,0,0,0,0,0,0,0,0,0,0,0,0,0,0,0,0,0,0,0,0,0,0,0,0,0,0,0,0,0,0,0,0,0,0,0,0,0,0,0,0,0,0,0,0,0,0,0,0],"id":14,"left_children":[1,3,5,7,-1,9,11,13,15,17,19,21,23,25,-1,27,-1,29,31,-1,33,35,37,39,41,-1,-1,-1,-1,43,45,-1,47,-1,49,51,53,55,57,59,61,-1,63,-1,-1,-1,-1,-1,-1,-1,-1,-1,-1,-1,-1,-1,-1,-1,-1,-1,-1,-1,-1,-1,-1],"loss_changes":[1.2697731E2,7.135623E1,5.808634E1,1.31059265E1,0E0,6.3022556E1,7.761072E1,1.22116625E-1,1.0091545E1,4.0956112E1,2.895388E1,5.4623566E1,4.2654293E1,2.601652E-1,0E0,2.4232483E0,0E0,3.4705746E1,1.5142887E1,0E0,1.4756459E1,3.030229E1,4.6523087E1,2.5439047E1,4.0178814E1,0E0,0E0,0E0,0E0,1.889096E1,4.2493683E1,0E0,2.2230148E-1,0E0,1.6358256E0,3.42016E1,1.0407055E1,1.4295456E1,1.0515751E1,3.079345E1,1.1249707E2,0E0,1.3409285E1,0E0,0E0,0E0,0E0,0E0,0E0,0E0,0E0,0E0,0E0,0E0,0E0,0E0,0E0,0E0,0E0,0E0,0E0,0E0,0E0,0E0,0E0],"parents":[2147483647,0,0,1,1,2,2,3,3,5,5,6,6,7,7,8,8,9,9,10,10,11,11,12,12,13,13,15,15,17,17,18,18,20,20,21,21,22,22,23,23,24,24,29,29,30,30,32,32,34,34,35,35,36,36,37,37,38,38,39,39,40,40,42,42],"right_children":[2,4,6,8,-1,10,12,14,16,18,20,22,24,26,-1,28,-1,30,32,-1,34,36,38,40,42,-1,-1,-1,-1,44,46,-1,48,-1,50,52,54,56,58,60,62,-1,64,-1,-1,-1,-1,-1,-1,-1,-1,-1,-1,-1,-1,-1,-1,-1,-1,-1,-1,-1,-1,-1,-1],"split_conditions":[5.407E3,4.2586514E1,3.9355705E1,1E2,2.6437845E0,3.913412E1,4.677364E3,8.472024E-3,1.4793742E0,4.0595875E0,3.733971E-1,1E0,2.846847E0,1.0865605E3,1.7791557E-1,2E0,-4.1829303E-2,1.8441164E1,5.539E3,-1.4461762E0,7.622E3,4.791968E1,3.9551956E1,4.063385E1,2.9736905E0,9.917641E-2,-4.6603777E-2,1.0227219E0,2.1175118E-1,9.755E3,2E0,1.3898908E-1,1E0,-8.6988E-1,8.4923154E-1,6.870099E-1,1E0,5.518414E-1,2E0,3.970319E1,4.146134E1,1.4784604E0,1.5E2,-1.0838794E0,-2.540583E-1,-5.4851826E-2,9.388524E-2,-3.058903E-1,-1.1206329E0,3.3771616E-1,-3.1984333E-2,3.5550955E-1,-1.478903E-1,8.8778484E-1,-7.66531E-2,1.8789294E0,2.7033463E-1,3.2841983E-1,8.6243844E-1,-2.5120988E-1,4.554908E-1,-8.395055E-1,4.0956937E-2,5.344729E-1,-1.39145E-1],"split_indices":[2,0,0,4,0,0,3,1,1,1,1,6,1,3,0,5,0,0,2,0,2,0,0,0,1,0,0,0,0,2,5,0,5,0,1,1,10,1,5,0,0,0,4,0,0,0,0,0,0,0,0,0,0,0,0,0,0,0,0,0,0,0,0,0,0],"split_type":[0,0,0,0,0,0,0,0,0,0,0,0,0,0,0,0,0,0,0,0,0,0,0,0,0,0,0,0,0,0,0,0,0,0,0,0,0,0,0,0,0,0,0,0,0,0,0,0,0,0,0,0,0,0,0,0,0,0,0,0,0,0,0,0,0],"sum_hessian":[1E3,1.2E1,9.88E2,1.1E1,1E0,8.07E2,1.81E2,4E0,7E0,8E2,7E0,7.6E1,1.05E2,3E0,1E0,6E0,1E0,7.95E2,5E0,3E0,4E0,5.4E1,2.2E1,9.4E1,1.1E1,2E0,1E0,5E0,1E0,2.4E1,7.71E2,1E0,4E0,1E0,3E0,4.7E1,7E0,4E0,1.8E1,2.2E1,7.2E1,2E0,9E0,2E0,2.2E1,5.11E2,2.6E2,1E0,3E0,1E0,2E0,2.5E1,2.2E1,6E0,1E0,3E0,1E0,1.3E1,5E0,8E0,1.4E1,1.6E1,5.6E1,4E0,5E0],"tree_param":{"num_deleted":"0","num_feature":"14","num_nodes":"65","size_leaf_vector":"1"}},{"base_weights":[4.362713E-2,3.060048E0,1.6244037E-2,1.5698733E0,2.247217E0,1.4406915E-1,-3.7672758E-1,-3.5554506E-2,1.8280023E0,-6.1359756E-2,4.3424487E-1,-1.378395E0,-2.0798908E-1,4.1297022E-1,2.3114212E0,-9.271586E-2,3.3796349E0,3.846361E-1,4.145559E0,-2.2648864E0,2.960431E-1,-5.53355E-1,4.7594348E-1,1.5122795E-1,3.460865E-2,1.799881E-1,7.7678895E-1,3.0604672E-1,-2.8973928E-1,1.217221E0,2.0194961E-1,-5.358061E-1,5.6937677E-1,1.6065636E0,7.748995E-2,-3.0082035E0,-4.9514124E-1,2.032973E0,-2.0692039E0,-1.3047574E0,4.7026092E-1,-9.830549E-1,1.1083839E0,-2.3538883E-1,2.3668842E-1,1.8987148E-1,-1.502553E-1,3.063979E-1,-5.1352423E-1,1.2915941E0,1.1544644E-1,-4.409392E-1,-1.5981743E0,-6.7960227E-1,9.630916E-1,1.798174E-1,7.232805E-1,-7.6463574E-1,4.9305726E-2,8.111991E-2,-5.277283E-1,1.8214399E0,8.172572E-2,-6.494209E-1,4.0664387E-1,1.1129202E-1,8.934253E-1],"categories":[],"categories_nodes":[],"categories_segments":[],"categories_sizes":[],"default_left":[0,0,0,0,0,0,0,0,0,0,0,0,0,0,0,0,0,0,0,0,0,0,0,0,0,0,0,0,0,0,0,0,0,0,0,0,0,0,0,0,0,0,0,0,0,0,0,0,0,0,0,0,0,0,0,0,0,0,0,0,0,0,0,0,0,0,0],"id":15,"left_children":[1,3,5,7,-1,9,11,-1,13,15,17,19,21,23,25,27,29,31,33,35,37,39,41,-1,-1,-1,-1,43,45,-1,-1,47,49,-1,-1,51,53,55,57,59,61,63,65,-1,-1,-1,-1,-1,-1,-1,-1,-1,-1,-1,-1,-1,-1,-1,-1,-1,-1,-1,-1,-1,-1,-1,-1],"loss_changes":[8.263184E1,4.766282E1,4.99343E1,3.7032204E0,0E0,4.47345E1,4.0954155E1,0E0,3.8338242E0,4.7787674E1,5.566483E1,5.262362E1,4.986683E1,2.3203492E-2,8.243866E-1,3.442183E1,4.6061325E0,5.2678356E1,1.742569E1,2.8766602E1,5.7614124E1,1.08294235E2,6.6603386E1,0E0,0E0,0E0,0E0,7.699104E1,5.738781E1,0E0,0E0,9.6965256E1,1.7554141E2,0E0,0E0,4.9252136E1,5.974748E1,2.889618E0,6.8459396E0,5.8443466E1,6.483519E1,6.3729107E1,6.783205E1,0E0,0E0,0E0,0E0,0E0,0E0,0E0,0E0,0E0,0E0,0E0,0E0,0E0,0E0,0E0,0E0,0E0,0E0,0E0,0E0,0E0,0E0,0E0,0E0],"parents":[2147483647,0,0,1,1,2,2,3,3,5,5,6,6,8,8,9,9,10,10,11,11,12,12,13,13,14,14,15,15,16,16,17,17,18,18,19,19,20,20,21,21,22,22,27,27,28,28,31,31,32,32,35,35,36,36,37,37,38,38,39,39,40,40,41,41,42,42],"right_children":[2,4,6,8,-1,10,12,-1,14,16,18,20,22,24,26,28,30,32,34,36,38,40,42,-1,-1,-1,-1,44,46,-1,-1,48,50,-1,-1,52,54,56,58,60,62,64,66,-1,-1,-1,-1,-1,-1,-1,-1,-1,-1,-1,-1,-1,-1,-1,-1,-1,-1,-1,-1,-1,-1,-1,-1],"split_conditions":[5.299E3,4.2586514E1,2.8125E4,2.8212599E1,2.247217E0,1.5E2,5.173085E3,-3.5554506E-2,7.5E1,2.7664E4,4.8716568E1,3.7097122E1,2E0,3.9271805E1,2.9352041E1,1E0,2.8018E4,2.1633884E3,5.292723E1,1E0,2E0,1.2507018E0,1E2,1.5122795E-1,3.460865E-2,1.799881E-1,7.7678895E-1,2.7304077E3,2.1633884E3,1.217221E0,2.0194961E-1,7.996E3,2.4880967E3,1.6065636E0,7.748995E-2,3.2023163E1,3.0971584E1,2.9158E4,3.0863E4,9.5883586E-2,1.2634152E0,3.177565E1,1E0,-2.3538883E-1,2.3668842E-1,1.8987148E-1,-1.502553E-1,3.063979E-1,-5.1352423E-1,1.2915941E0,1.1544644E-1,-4.409392E-1,-1.5981743E0,-6.7960227E-1,9.630916E-1,1.798174E-1,7.232805E-1,-7.6463574E-1,4.9305726E-2,8.111991E-2,-5.277283E-1,1.8214399E0,8.172572E-2,-6.494209E-1,4.0664387E-1,1.1129202E-1,8.934253E-1],"split_indices":[2,0,2,0,0,4,3,0,4,2,0,0,5,0,0,5,2,3,0,8,5,1,4,0,0,0,0,3,3,0,0,2,3,0,0,0,0,2,2,1,1,0,10,0,0,0,0,0,0,0,0,0,0,0,0,0,0,0,0,0,0,0,0,0,0,0,0],"split_type":[0,0,0,0,0,0,0,0,0,0,0,0,0,0,0,0,0,0,0,0,0,0,0,0,0,0,0,0,0,0,0,0,0,0,0,0,0,0,0,0,0,0,0,0,0,0,0,0,0,0,0,0,0,0,0,0,0,0,0,0,0,0,0,0,0,0,0],"sum_hessian":[1E3,8E0,9.92E2,7E0,1E0,7.49E2,2.43E2,1E0,6E0,4.39E2,3.1E2,3.4E1,2.09E2,2E0,4E0,4.36E2,3E0,3.07E2,3E0,2.2E1,1.2E1,1.39E2,7E1,1E0,1E0,1E0,3E0,1.44E2,2.92E2,2E0,1E0,5.1E1,2.56E2,2E0,1E0,1.5E1,7E0,7E0,5E0,8E1,5.9E1,2.1E1,4.9E1,4.4E1,1E2,5.4E1,2.38E2,2.2E1,2.9E1,1.1E1,2.45E2,1E1,5E0,5E0,2E0,2E0,5E0,4E0,1E0,1.8E1,6.2E1,1E0,5.8E1,1.4E1,7E0,3.6E1,1.3E1],"tree_param":{"num_deleted":"0","num_feature":"14","num_nodes":"67","size_leaf_vector":"1"}},{"base_weights":[3.887958E-2,2.127308E0,1.1388733E-2,1.2433983E0,1.9101335E0,1.21664636E-1,-3.4693852E-1,7.512783E-1,7.407998E-1,-2.0025473E0,1.4702678E-1,-2.7663997E-1,-1.6932844E0,5.7111103E-2,9.176812E-1,-6.454034E-1,-1.2182533E-1,-2.8094264E-2,5.2083355E-1,-1.3827622E0,-2.3776267E-1,5.592156E-2,-3.022156E-2,2.5609303E-1,3.7902468E-1,5.799126E-1,-1.6833602E-1,-8.178723E-1,7.7799124E-1,1.3233526E0,-3.4507272E-1,1.6741563E-2,1.2854348E-1,1.3646608E-2,8.6796683E-1,-5.771488E-1,-1.5351578E-2,-7.885204E-1,-3.8164542E-3,-2.512519E-1,2.7954027E-1,-1.8968125E-1,7.0931745E-1,-3.9066923E-1,-6.2171806E-2],"categories":[],"categories_nodes":[],"categories_segments":[],"categories_sizes":[],"default_left":[0,0,0,0,0,0,0,0,0,0,0,0,0,0,0,0,0,0,0,0,0,0,0,0,0,0,0,0,0,0,0,0,0,0,0,0,0,0,0,0,0,0,0,0,0],"id":16,"left_children":[1,3,5,7,-1,9,11,13,-1,15,17,19,-1,21,23,-1,-1,25,27,-1,29,-1,-1,31,-1,33,35,37,39,41,43,-1,-1,-1,-1,-1,-1,-1,-1,-1,-1,-1,-1,-1,-1],"loss_changes":[5.744585E1,4.0801975E1,3.9122406E1,5.3845234E0,0E0,4.107747E1,8.520672E1,1.102705E0,0E0,1.2643127E0,4.904525E1,3.7813377E1,0E0,8.000525E-2,1.5063176E0,0E0,0E0,4.3669544E1,8.291408E1,0E0,3.8987015E1,0E0,0E0,1.1419532E-1,0E0,1.1855206E2,8.5464745E1,5.681877E1,5.0724686E1,3.203313E1,2.8226639E1,0E0,0E0,0E0,0E0,0E0,0E0,0E0,0E0,0E0,0E0,0E0,0E0,0E0,0E0],"parents":[2147483647,0,0,1,1,2,2,3,3,5,5,6,6,7,7,9,9,10,10,11,11,13,13,14,14,17,17,18,18,20,20,23,23,25,25,26,26,27,27,28,28,29,29,30,30],"right_children":[2,4,6,8,-1,10,12,14,-1,16,18,20,-1,22,24,-1,-1,26,28,-1,30,-1,-1,32,-1,34,36,38,40,42,44,-1,-1,-1,-1,-1,-1,-1,-1,-1,-1,-1,-1,-1,-1],"split_conditions":[5.407E3,4.2586514E1,1E0,2.3835303E3,1.9101335E0,1.9491426E1,3.5812828E1,2.8212599E1,7.407998E-1,3.0789E4,2E0,8.971494E2,-1.6932844E0,2.5616928E1,1E2,-6.454034E-1,-1.2182533E-1,2.9236023E1,7.5E1,-1.3827622E0,1.7317377E3,5.592156E-2,-3.022156E-2,8.472024E-3,3.7902468E-1,2.8084734E1,3.0009375E1,3.733971E-1,1.7317377E3,1E2,6.5954395E-2,1.6741563E-2,1.2854348E-1,1.3646608E-2,8.6796683E-1,-5.771488E-1,-1.5351578E-2,-7.885204E-1,-3.8164542E-3,-2.512519E-1,2.7954027E-1,-1.8968125E-1,7.0931745E-1,-3.9066923E-1,-6.2171806E-2],"split_indices":[2,0,9,3,0,0,0,0,0,2,5,3,0,0,4,0,0,0,4,0,3,0,0,1,0,0,0,1,3,4,1,0,0,0,0,0,0,0,0,0,0,0,0,0,0],"split_type":[0,0,0,0,0,0,0,0,0,0,0,0,0,0,0,0,0,0,0,0,0,0,0,0,0,0,0,0,0,0,0,0,0,0,0,0,0,0,0,0,0,0,0,0,0],"sum_hessian":[1E3,1.2E1,9.88E2,1.1E1,1E0,7.56E2,2.32E2,9E0,2E0,8E0,7.48E2,2.3E2,2E0,2E0,7E0,7E0,1E0,5.1E2,2.38E2,1E0,2.29E2,1E0,1E0,3E0,4E0,9.5E1,4.15E2,3.8E1,2E2,1.4E1,2.15E2,2E0,1E0,7.8E1,1.7E1,2.5E1,3.9E2,1.1E1,2.7E1,1.7E1,1.83E2,5E0,9E0,2.6E1,1.89E2],"tree_param":{"num_deleted":"0","num_feature":"14","num_nodes":"45","size_leaf_vector":"1"}},{"base_weights":[2.6166046E-2,4.678498E-1,-8.1273384E-2,-5.1705724E-1,7.9077274E-1,-2.7240493E0,-5.1365793E-2,-8.1251554E-2,-3.120284E0,6.4532363E-1,3.255467E0,2.7581292E-1,-9.883199E-1,-1.3127522E0,-3.500299E-2,-6.563234E-1,1.1568489E0,-3.9989443E0,-6.1575574E-1,7.8993726E-1,-2.2358434E0,5.654669E-2,1.100004E0,9.574391E-1,-8.4644355E-2,-1.069625E0,6.139591E-1,-5.182785E-1,1.8787277E0,-1.31886E0,-3.6148798E-1,-5.0697327E-3,-2.7202034E-1,-4.5681643E-1,1.091519E0,-1.5716871E0,1.31931305E-2,-5.728629E-1,2.3633542E0,-6.850103E-2,-2.5053575E0,-1.3292216E-1,-1.1804923E0,-3.366298E-1,1.1644269E0,-3.4763262E-1,-2.053814E-2,6.5653807E-1,2.6010418E-1,-5.28191E-1,2.6389006E-1,9.9630463E-1,2.1012554E-1,5.41298E-1,-5.3470135E-1,6.9158816E-1,-5.29632E-1,1.326661E0,4.146773E-1,-5.3601316E-3,-2.6009846E-1,-1.9075127E-1,-8.4413344E-1],"categories":[],"categories_nodes":[],"categories_segments":[],"categories_sizes":[],"default_left":[0,0,0,0,0,0,0,0,0,0,0,0,0,0,0,0,0,0,0,0,0,0,0,0,0,0,0,0,0,0,0,0,0,0,0,0,0,0,0,0,0,0,0,0,0,0,0,0,0,0,0,0,0,0,0,0,0,0,0,0,0,0,0],"id":17,"left_children":[1,3,5,7,9,11,13,15,17,19,21,-1,-1,-1,23,25,27,29,31,33,35,-1,-1,37,39,41,43,45,47,-1,-1,-1,-1,49,51,-1,53,55,57,59,61,-1,-1,-1,-1,-1,-1,-1,-1,-1,-1,-1,-1,-1,-1,-1,-1,-1,-1,-1,-1,-1,-1],"loss_changes":[4.7539726E1,6.274649E1,6.356555E1,5.533703E1,5.095533E1,2.1731056E1,5.6313725E1,3.1375124E1,1.2942032E1,6.0514706E1,9.398308E0,0E0,0E0,0E0,3.929692E1,1.6406998E1,1.7903053E1,2.52388E-1,5.0744057E-1,5.1258377E1,4.73479E1,0E0,0E0,8.310991E1,2.9488852E1,3.9548138E1,4.9735397E1,1.3612046E0,1.2361755E0,0E0,0E0,0E0,0E0,4.8595955E1,9.271727E1,0E0,1.9296097E1,6.92859E1,3.4285965E1,3.0509823E1,1.0938873E0,0E0,0E0,0E0,0E0,0E0,0E0,0E0,0E0,0E0,0E0,0E0,0E0,0E0,0E0,0E0,0E0,0E0,0E0,0E0,0E0,0E0,0E0],"parents":[2147483647,0,0,1,1,2,2,3,3,4,4,5,5,6,6,7,7,8,8,9,9,10,10,14,14,15,15,16,16,17,17,18,18,19,19,20,20,23,23,24,24,25,25,26,26,27,27,28,28,33,33,34,34,36,36,37,37,38,38,39,39,40,40],"right_children":[2,4,6,8,10,12,14,16,18,20,22,-1,-1,-1,24,26,28,30,32,34,36,-1,-1,38,40,42,44,46,48,-1,-1,-1,-1,50,52,-1,54,56,58,60,62,-1,-1,-1,-1,-1,-1,-1,-1,-1,-1,-1,-1,-1,-1,-1,-1,-1,-1,-1,-1,-1,-1],"split_conditions":[1.041E4,2.7121521E1,1.0638E4,2.6192158E1,3.894066E3,1.8055383E3,1.2691532E3,2.395663E1,1.5E2,3.7391091E3,2.8626339E1,2.7581292E-1,-9.883199E-1,-1.3127522E0,1.1669E4,1E0,1.4777662E3,1.8581166E0,2.6889353E1,7.5E1,3.7885657E3,5.654669E-2,1.100004E0,3.327182E1,4.0595875E0,3.272721E3,1.7938068E0,2.5188719E1,1E0,-1.31886E0,-3.6148798E-1,-5.0697327E-3,-2.7202034E-1,6.1746883E-1,6.5954395E-2,-1.5716871E0,3.327182E1,2.4345457E1,2.6256936E3,1.3395833E4,1E0,-1.3292216E-1,-1.1804923E0,-3.366298E-1,1.1644269E0,-3.4763262E-1,-2.053814E-2,6.5653807E-1,2.6010418E-1,-5.28191E-1,2.6389006E-1,9.9630463E-1,2.1012554E-1,5.41298E-1,-5.3470135E-1,6.9158816E-1,-5.29632E-1,1.326661E0,4.146773E-1,-5.3601316E-3,-2.6009846E-1,-1.9075127E-1,-8.4413344E-1],"split_indices":[2,0,2,0,3,3,3,0,4,3,0,0,0,0,2,11,3,1,0,4,3,0,0,0,1,3,1,0,11,0,0,0,0,1,1,0,0,0,3,3,5,0,0,0,0,0,0,0,0,0,0,0,0,0,0,0,0,0,0,0,0,0,0],"split_type":[0,0,0,0,0,0,0,0,0,0,0,0,0,0,0,0,0,0,0,0,0,0,0,0,0,0,0,0,0,0,0,0,0,0,0,0,0,0,0,0,0,0,0,0,0,0,0,0,0,0,0,0,0,0,0,0,0,0,0,0,0,0,0],"sum_hessian":[1E3,1.95E2,8.05E2,4.8E1,1.47E2,8E0,7.97E2,4.2E1,6E0,1.4E2,7E0,1E0,7E0,2E0,7.95E2,2.9E1,1.3E1,4E0,2E0,1.34E2,6E0,1E0,6E0,3.7E1,7.58E2,2.2E1,7E0,4E0,9E0,3E0,1E0,1E0,1E0,2.6E1,1.08E2,2E0,4E0,1.8E1,1.9E1,7.54E2,4E0,1.9E1,3E0,5E0,2E0,1E0,3E0,6E0,3E0,1.3E1,1.3E1,1.5E1,9.3E1,2E0,2E0,5E0,1.3E1,5E0,1.4E1,7.1E2,4.4E1,1E0,3E0],"tree_param":{"num_deleted":"0","num_feature":"14","num_nodes":"63","size_leaf_vector":"1"}},{"base_weights":[1.5535533E-2,-3.6362648E-2,7.17064E-1,2.3812252E-1,-1.296433E-1,1.5051836E0,5.138147E-1,1.1441551E0,-8.240104E-2,-2.4596276E0,-6.0721E-2,3.4883744E-1,2.4897652E0,5.681118E-1,1.7800628E0,-4.0154368E-1,6.6582704E-1,-3.7037712E-1,-3.3285651E0,-2.5594524E-1,2.4449997E-1,7.965407E-1,-8.230309E-2,8.606368E-1,1.4605036E-1,-1.3420765E0,1.4199435E0,2.2563164E0,-3.90655E-2,-6.218139E-1,1.7061294E0,-3.3134323E-1,2.201103E0,7.094658E-1,-2.0466564E0,-1.6250185E0,-1.8209836E0,-2.0841038E-1,-2.1555123E0,2.8272057E0,1.5310365E-1,3.8368326E-1,2.4528325E0,-6.1531323E-1,1.2051516E0,-1.18549995E-1,-8.701132E-1,5.9923682E-2,6.052675E-1,4.487015E-1,1.2486595E0,-7.2380495E-1,7.032955E-1,-1.5011026E-1,-1.1418407E0,4.2453863E-2,1.4399953E0,7.550345E-2,-1.0939797E0,1.2399598E0,-2.5028107E-1,-1.9770299E-1,5.5243593E-1,-1.8698917E-1,-7.3400617E-1,-5.5124532E-2,-7.665722E-1,-5.055501E-2,-6.501209E-1,-9.500977E-1,3.7808144E-1,1.1361243E0,-1.0647144E-1,1.929045E-1,-7.827456E-2,2.0760283E-1,-4.455338E-1,9.005242E-1,-4.3761063E-2,-5.9644043E-1,-1.4176234E-2,6.828748E-1,-9.63588E-2],"categories":[],"categories_nodes":[],"categories_segments":[],"categories_sizes":[],"default_left":[0,0,0,0,0,0,0,0,0,0,0,0,0,0,0,0,0,0,0,0,0,0,0,0,0,0,0,0,0,0,0,0,0,0,0,0,0,0,0,0,0,0,0,0,0,0,0,0,0,0,0,0,0,0,0,0,0,0,0,0,0,0,0,0,0,0,0,0,0,0,0,0,0,0,0,0,0,0,0,0,0,0,0],"id":18,"left_children":[1,3,5,7,9,-1,11,13,15,17,19,21,23,25,27,29,31,33,35,37,39,41,43,-1,-1,45,47,49,51,53,55,57,59,61,63,65,-1,67,69,71,73,75,77,79,81,-1,-1,-1,-1,-1,-1,-1,-1,-1,-1,-1,-1,-1,-1,-1,-1,-1,-1,-1,-1,-1,-1,-1,-1,-1,-1,-1,-1,-1,-1,-1,-1,-1,-1,-1,-1,-1,-1],"loss_changes":[3.6470535E1,2.391955E1,5.7729126E1,6.892022E1,1.117804E2,0E0,2.0972597E1,2.1699966E1,4.229466E1,3.5075745E1,4.0462246E1,1.22260065E1,2.399168E0,5.7229073E1,2.5212776E1,5.862884E1,8.186868E1,1.412286E1,5.5517166E1,3.693317E1,6.2120335E1,2.025707E1,2.3387016E1,0E0,0E0,1.5085142E1,1.7098003E1,2.711779E1,4.525679E1,4.179538E1,5.74091E1,6.470231E1,1.26605515E2,8.959021E0,1.8314934E-1,1.293749E1,0E0,3.1280752E1,3.854124E1,2.8833908E1,5.2295723E1,1.6008877E1,8.996662E0,1.8622305E1,1.7079794E1,0E0,0E0,0E0,0E0,0E0,0E0,0E0,0E0,0E0,0E0,0E0,0E0,0E0,0E0,0E0,0E0,0E0,0E0,0E0,0E0,0E0,0E0,0E0,0E0,0E0,0E0,0E0,0E0,0E0,0E0,0E0,0E0,0E0,0E0,0E0,0E0,0E0,0E0],"parents":[2147483647,0,0,1,1,2,2,3,3,4,4,6,6,7,7,8,8,9,9,10,10,11,11,12,12,13,13,14,14,15,15,16,16,17,17,18,18,19,19,20,20,21,21,22,22,25,25,26,26,27,27,28,28,29,29,30,30,31,31,32,32,33,33,34,34,35,35,37,37,38,38,39,39,40,40,41,41,42,42,43,43,44,44],"right_children":[2,4,6,8,10,-1,12,14,16,18,20,22,24,26,28,30,32,34,36,38,40,42,44,-1,-1,46,48,50,52,54,56,58,60,62,64,66,-1,68,70,72,74,76,78,80,82,-1,-1,-1,-1,-1,-1,-1,-1,-1,-1,-1,-1,-1,-1,-1,-1,-1,-1,-1,-1,-1,-1,-1,-1,-1,-1,-1,-1,-1,-1,-1,-1,-1,-1,-1,-1,-1,-1],"split_conditions":[4.3274002E1,3.2888818E-1,5.615E3,3.1189934E3,3.5781038E-1,1.5051836E0,3.436155E0,2.195238E3,1E0,1E0,6.462324E3,2.1734E4,3.7141182E0,2.8281202E1,1.8009213E-1,3.3573E4,3.177565E1,2.8869E4,1.5E2,6.3283486E3,1.5604E4,5.6214375E3,1.074875E4,8.606368E-1,1.4605036E-1,1.8506646E3,6.762E3,1.1488252E-1,2.6304904E-1,3.3323E4,2.320807E-1,3.0588602E1,7.8324463E3,1.4673E4,2.6091602E1,7.8001333E3,-1.8209836E0,3.3573E4,2.846847E0,1E0,1.2771103E0,4.6380786E3,4.7132317E1,2.5849E4,3.1904E4,-1.18549995E-1,-8.701132E-1,5.9923682E-2,6.052675E-1,4.487015E-1,1.2486595E0,-7.2380495E-1,7.032955E-1,-1.5011026E-1,-1.1418407E0,4.2453863E-2,1.4399953E0,7.550345E-2,-1.0939797E0,1.2399598E0,-2.5028107E-1,-1.9770299E-1,5.5243593E-1,-1.8698917E-1,-7.3400617E-1,-5.5124532E-2,-7.665722E-1,-5.055501E-2,-6.501209E-1,-9.500977E-1,3.7808144E-1,1.1361243E0,-1.0647144E-1,1.929045E-1,-7.827456E-2,2.0760283E-1,-4.455338E-1,9.005242E-1,-4.3761063E-2,-5.9644043E-1,-1.4176234E-2,6.828748E-1,-9.63588E-2],"split_indices":[0,1,2,3,1,0,1,3,8,10,3,2,1,0,1,2,0,2,4,3,2,3,3,0,0,3,2,1,1,2,1,0,3,2,0,3,0,2,1,10,1,3,0,2,2,0,0,0,0,0,0,0,0,0,0,0,0,0,0,0,0,0,0,0,0,0,0,0,0,0,0,0,0,0,0,0,0,0,0,0,0,0,0],"split_type":[0,0,0,0,0,0,0,0,0,0,0,0,0,0,0,0,0,0,0,0,0,0,0,0,0,0,0,0,0,0,0,0,0,0,0,0,0,0,0,0,0,0,0,0,0,0,0,0,0,0,0,0,0,0,0,0,0,0,0,0,0,0,0,0,0,0,0,0,0,0,0,0,0,0,0,0,0,0,0,0,0,0,0],"sum_hessian":[1E3,9.32E2,6.8E1,2.36E2,6.96E2,2E0,6.6E1,6.1E1,1.75E2,1.9E1,6.77E2,6.2E1,4E0,3.3E1,2.8E1,1.23E2,5.2E1,6E0,1.3E1,4.13E2,2.64E2,3E1,3.2E1,3E0,1E0,1E1,2.3E1,2.2E1,6E0,1.12E2,1.1E1,3.2E1,2E1,4E0,2E0,9E0,4E0,4.04E2,9E0,8E0,2.56E2,2.5E1,5E0,2.3E1,9E0,7E0,3E0,8E0,1.5E1,1.7E1,5E0,3E0,3E0,1.09E2,3E0,8E0,3E0,2.8E1,4E0,1.2E1,8E0,2E0,2E0,1E0,1E0,4E0,5E0,3.97E2,7E0,7E0,2E0,6E0,2E0,1.17E2,1.39E2,2.2E1,3E0,4E0,1E0,6E0,1.7E1,5E0,4E0],"tree_param":{"num_deleted":"0","num_feature":"14","num_nodes":"83","size_leaf_vector":"1"}},{"base_weights":[1.2157759E-2,-7.42289E-2,3.2460645E-1,-1.2552989E-1,3.1356585E-1,3.9117965E-1,-2.5763326E0,-1.00979015E-1,-2.923867E0,1.7630545E0,-1.4787746E-2,-4.1801733E-1,6.419641E-1,-1.503974E-1,-8.90926E-1,-1.5091918E-1,1.3516763E0,5.425114E-1,-1.7226237E0,2.596187E0,-7.5570136E-1,-1.5588559E0,2.7049848E-1,-1.5248048E-1,-2.3841302E0,8.5943025E-1,-7.9086125E-1,-3.2100264E-2,-7.794599E-1,-8.1504875E-1,2.164347E0,3.5882206E0,2.912898E-1,3.3999205E-2,-3.8805047E-1,-2.5921948E0,1.1558709E0,6.26605E-1,-1.3545222E0,-7.9457265E-1,7.2196794E-1,-9.9706435E-1,-1.0316523E0,6.217421E-1,2.0021574E0,-2.3075778E0,-7.786888E-2,-3.788861E-2,3.6009094E-1,-9.984981E-2,-5.8615655E-1,3.147303E-1,-5.311587E-1,2.4674682E-1,1.0713377E0,1.191204E0,7.928181E-2,7.546732E-1,-2.6810288E-1,-2.2086407E-1,2.3616372E-1,1.5578242E-1,-1.2703427E0,4.747143E-2,6.223154E-1,5.715851E-1,6.47713E-2,-7.993014E-1,1.19804956E-1,8.2102634E-2,-3.3384556E-1,5.98288E-1,1.0270848E-2,-3.423676E-1,-8.4687285E-2,2.4310564E-1,-3.9112E-1,2.0656912E0,2.9298905E-1,-7.873713E-1,-6.0843088E-2,6.6517496E-1,-2.3342082E-1],"categories":[],"categories_nodes":[],"categories_segments":[],"categories_sizes":[],"default_left":[0,0,0,0,0,0,0,0,0,0,0,0,0,0,0,0,0,0,0,0,0,0,0,0,0,0,0,0,0,0,0,0,0,0,0,0,0,0,0,0,0,0,0,0,0,0,0,0,0,0,0,0,0,0,0,0,0,0,0,0,0,0,0,0,0,0,0,0,0,0,0,0,0,0,0,0,0,0,0,0,0,0,0],"id":19,"left_children":[1,3,5,7,9,11,13,15,17,19,21,23,25,-1,-1,27,29,-1,-1,31,33,35,37,39,41,43,45,47,49,51,53,55,57,59,-1,61,63,65,67,69,71,73,-1,75,77,79,81,-1,-1,-1,-1,-1,-1,-1,-1,-1,-1,-1,-1,-1,-1,-1,-1,-1,-1,-1,-1,-1,-1,-1,-1,-1,-1,-1,-1,-1,-1,-1,-1,-1,-1,-1,-1],"loss_changes":[2.7042484E1,1.5656353E1,4.291588E1,4.7383682E1,4.3812996E1,4.3493294E1,2.5929413E0,5.0188084E1,9.040251E1,3.7635727E1,3.3899773E1,2.626231E1,5.1469032E1,0E0,0E0,4.9788223E1,4.2263226E1,0E0,0E0,2.8679749E1,2.1674838E0,3.6659035E1,3.8462982E1,2.6401575E1,5.34898E0,3.7324173E1,2.3611275E1,6.539212E1,5.494847E1,1.4325569E1,2.9153618E1,1.039212E1,1.5426637E1,2.3199596E0,0E0,4.818801E1,3.337112E0,2.794696E1,2.8630995E1,9.483622E0,1.7432095E1,9.001136E-2,0E0,4.427298E1,1.1347068E2,4.1380844E0,2.7437864E1,0E0,0E0,0E0,0E0,0E0,0E0,0E0,0E0,0E0,0E0,0E0,0E0,0E0,0E0,0E0,0E0,0E0,0E0,0E0,0E0,0E0,0E0,0E0,0E0,0E0,0E0,0E0,0E0,0E0,0E0,0E0,0E0,0E0,0E0,0E0,0E0],"parents":[2147483647,0,0,1,1,2,2,3,3,4,4,5,5,6,6,7,7,8,8,9,9,10,10,11,11,12,12,15,15,16,16,19,19,20,20,21,21,22,22,23,23,24,24,25,25,26,26,27,27,28,28,29,29,30,30,31,31,32,32,33,33,35,35,36,36,37,37,38,38,39,39,40,40,41,41,43,43,44,44,45,45,46,46],"right_children":[2,4,6,8,10,12,14,16,18,20,22,24,26,-1,-1,28,30,-1,-1,32,34,36,38,40,42,44,46,48,50,52,54,56,58,60,-1,62,64,66,68,70,72,74,-1,76,78,80,82,-1,-1,-1,-1,-1,-1,-1,-1,-1,-1,-1,-1,-1,-1,-1,-1,-1,-1,-1,-1,-1,-1,-1,-1,-1,-1,-1,-1,-1,-1,-1,-1,-1,-1,-1,-1],"split_conditions":[2E2,3.0249426E0,3.7141182E0,3.0009007E0,3.1348033E0,2.7121521E1,2.9785059E1,3.4072E4,1.4923E4,2.8018E4,3.2060845E0,2.6091602E1,1.2137142E4,-1.503974E-1,-8.90926E-1,9.5665625E3,8.1462134E3,5.425114E-1,-1.7226237E0,1E0,2.7673368E1,8.088296E3,1E0,2.369056E1,6.143876E3,2.846847E0,2.9353E4,8.583335E3,1.5978991E0,7.480282E-1,8.0139184E-1,6.7919644E3,1.8847889E1,1.3567986E1,-3.8805047E-1,3.1563816E0,2.4737E4,1.1254E4,3.436155E0,1.8009213E-1,5.320886E-1,4.3783784E-1,-1.0316523E0,2.342541E0,2.9459453E0,1E0,2.0770857E-2,-3.788861E-2,3.6009094E-1,-9.984981E-2,-5.8615655E-1,3.147303E-1,-5.311587E-1,2.4674682E-1,1.0713377E0,1.191204E0,7.928181E-2,7.546732E-1,-2.6810288E-1,-2.2086407E-1,2.3616372E-1,1.5578242E-1,-1.2703427E0,4.747143E-2,6.223154E-1,5.715851E-1,6.47713E-2,-7.993014E-1,1.19804956E-1,8.2102634E-2,-3.3384556E-1,5.98288E-1,1.0270848E-2,-3.423676E-1,-8.4687285E-2,2.4310564E-1,-3.9112E-1,2.0656912E0,2.9298905E-1,-7.873713E-1,-6.0843088E-2,6.6517496E-1,-2.3342082E-1],"split_indices":[4,1,1,1,1,0,0,2,2,2,1,0,3,0,0,3,3,0,0,9,0,3,8,0,3,1,2,3,1,1,1,3,0,0,0,1,2,2,1,1,1,1,0,1,1,6,1,0,0,0,0,0,0,0,0,0,0,0,0,0,0,0,0,0,0,0,0,0,0,0,0,0,0,0,0,0,0,0,0,0,0,0,0],"split_type":[0,0,0,0,0,0,0,0,0,0,0,0,0,0,0,0,0,0,0,0,0,0,0,0,0,0,0,0,0,0,0,0,0,0,0,0,0,0,0,0,0,0,0,0,0,0,0,0,0,0,0,0,0,0,0,0,0,0,0,0,0,0,0,0,0,0,0,0,0,0,0,0,0,0,0,0,0,0,0,0,0,0,0],"sum_hessian":[1E3,7.84E2,2.16E2,6.93E2,9.1E1,2.12E2,4E0,6.88E2,5E0,1.6E1,7.5E1,5E1,1.62E2,1E0,3E0,6.66E2,2.2E1,2E0,3E0,1.2E1,4E0,1.1E1,6.4E1,4.5E1,5E0,1.41E2,2.1E1,5.61E2,1.05E2,6E0,1.6E1,8E0,4E0,2E0,2E0,8E0,3E0,5.3E1,1.1E1,2.6E1,1.9E1,3E0,2E0,1.18E2,2.3E1,6E0,1.5E1,5.22E2,3.9E1,7.7E1,2.8E1,2E0,4E0,9E0,7E0,7E0,1E0,1E0,3E0,1E0,1E0,3E0,5E0,2E0,1E0,1.2E1,4.1E1,6E0,5E0,6E0,2E1,6E0,1.3E1,2E0,1E0,1.08E2,1E1,3E0,2E1,5E0,1E0,3E0,1.2E1],"tree_param":{"num_deleted":"0","num_feature":"14","num_nodes":"83","size_leaf_vector":"1"}},{"base_weights":[8.615459E-3,-2.9405467E-2,5.2259964E-1,-8.5735954E-2,2.7731287E-1,1.2189469E0,3.5626727E-1,-2.0241199E-2,-7.376734E-1,1.7911093E0,2.0776562E-2,9.5409954E-1,8.1570566E-2,-8.112163E-2,1.0713329E0,-9.469123E-1,3.0561156E0,-3.0609465E-1,3.105242E0,9.2014715E-2,-1.3219132E0,3.503159E-1,1.8914585E0,-2.2376049E-1,1.1011777E0,-1.5770327E-2,-6.423685E-1,1.5297443E0,-2.260131E0,-1.4337077E0,-8.668487E-2,1.0599586E0,2.4373169E-1,3.0781412E-1,-8.587845E-1,4.395465E0,-8.9662516E-1,3.698023E-1,-1.080842E0,-2.2733688E-2,5.177227E-1,6.7318237E-1,1.6680223E-1,5.439729E-1,-5.282533E-1,1.8095652E0,-1.10800266E-1,-1.819102E-2,5.3128916E-1,-3.5896134E-2,-6.1999756E-1,8.440739E-2,7.168641E-1,-8.841579E-1,-2.4590756E-1,-1.3253388E-1,-7.216665E-1,2.6640046E-1,-6.079278E-1,-1.38150705E-2,1.6772214E-1,-2.9817125E-1,-4.77459E-2,1.6571687E0,3.9655325E-1,-7.388522E-1,5.703032E-1,-1.0849807E-1,3.7567177E-1,-7.890659E-1,-4.252936E-2,1.5376717E-1,-5.3983766E-1,-8.7207034E-2,2.2852576E-1,-3.154021E-1,3.4783E-2,2.2147362E-1,8.9757293E-1,1.0519635E-1,-2.934929E-1],"categories":[],"categories_nodes":[],"categories_segments":[],"categories_sizes":[],"default_left":[0,0,0,0,0,0,0,0,0,0,0,0,0,0,0,0,0,0,0,0,0,0,0,0,0,0,0,0,0,0,0,0,0,0,0,0,0,0,0,0,0,0,0,0,0,0,0,0,0,0,0,0,0,0,0,0,0,0,0,0,0,0,0,0,0,0,0,0,0,0,0,0,0,0,0,0,0,0,0,0,0],"id":20,"left_children":[1,3,5,7,9,-1,11,13,15,17,19,21,23,25,27,29,31,33,35,37,-1,39,41,43,45,47,49,51,53,55,57,-1,-1,59,61,63,65,67,69,71,-1,-1,-1,73,75,77,79,-1,-1,-1,-1,-1,-1,-1,-1,-1,-1,-1,-1,-1,-1,-1,-1,-1,-1,-1,-1,-1,-1,-1,-1,-1,-1,-1,-1,-1,-1,-1,-1,-1,-1],"loss_changes":[1.9577063E1,1.6143768E1,3.9187164E1,3.367417E1,5.6272625E1,0E0,1.0925087E1,4.780196E1,6.004807E1,5.882659E1,3.9828236E1,1.1222593E1,1.4878332E1,2.4967735E1,6.1490303E1,2.8769798E1,1.4111404E0,3.318056E0,7.106397E1,4.0799522E1,0E0,7.2226644E0,2.518137E0,8.936822E0,9.644549E0,4.9087788E1,5.261203E1,3.5822113E1,2.5325642E0,4.13534E1,5.095609E1,0E0,0E0,4.703046E-1,3.1448698E-1,2.7381973E1,2.2208687E1,6.564531E1,3.4546783E1,1.2335103E1,0E0,0E0,0E0,2.2209325E0,9.220108E0,6.657921E0,2.3446302E0,0E0,0E0,0E0,0E0,0E0,0E0,0E0,0E0,0E0,0E0,0E0,0E0,0E0,0E0,0E0,0E0,0E0,0E0,0E0,0E0,0E0,0E0,0E0,0E0,0E0,0E0,0E0,0E0,0E0,0E0,0E0,0E0,0E0,0E0],"parents":[2147483647,0,0,1,1,2,2,3,3,4,4,6,6,7,7,8,8,9,9,10,10,11,11,12,12,13,13,14,14,15,15,16,16,17,17,18,18,19,19,21,21,22,22,23,23,24,24,25,25,26,26,27,27,28,28,29,29,30,30,33,33,34,34,35,35,36,36,37,37,38,38,39,39,43,43,44,44,45,45,46,46],"right_children":[2,4,6,8,10,-1,12,14,16,18,20,22,24,26,28,30,32,34,36,38,-1,40,42,44,46,48,50,52,54,56,58,-1,-1,60,62,64,66,68,70,72,-1,-1,-1,74,76,78,80,-1,-1,-1,-1,-1,-1,-1,-1,-1,-1,-1,-1,-1,-1,-1,-1,-1,-1,-1,-1,-1,-1,-1,-1,-1,-1,-1,-1,-1,-1,-1,-1,-1,-1],"split_conditions":[4.3274002E1,2.846847E0,5.615E3,2.342541E0,2.9736905E0,1.2189469E0,1.3589E4,2.0429585E0,3.4557E4,2.9710789E1,3.4423E4,1.5E2,1.074875E4,1.626438E0,9.165378E3,1E0,3.1235857E1,2.9053442E0,9.845688E3,3.604336E1,-1.3219132E0,5.6214375E3,1E0,1E2,3.1904E4,1.5362142E0,1E0,1E0,1E2,2.8867485E1,2.7061882E0,1.0599586E0,2.4373169E-1,2.6091602E1,2.4458279E1,2.9459453E0,3.5882782E1,2.9604992E1,3.794119E1,4.6380786E3,5.177227E-1,6.7318237E-1,1.6680223E-1,8.472024E-3,4.7132317E1,4.487306E1,3.2434E4,-1.819102E-2,5.3128916E-1,-3.5896134E-2,-6.1999756E-1,8.440739E-2,7.168641E-1,-8.841579E-1,-2.4590756E-1,-1.3253388E-1,-7.216665E-1,2.6640046E-1,-6.079278E-1,-1.38150705E-2,1.6772214E-1,-2.9817125E-1,-4.77459E-2,1.6571687E0,3.9655325E-1,-7.388522E-1,5.703032E-1,-1.0849807E-1,3.7567177E-1,-7.890659E-1,-4.252936E-2,1.5376717E-1,-5.3983766E-1,-8.7207034E-2,2.2852576E-1,-3.154021E-1,3.4783E-2,2.2147362E-1,8.9757293E-1,1.0519635E-1,-2.934929E-1],"split_indices":[0,1,2,1,1,0,2,1,2,0,2,4,3,1,3,6,0,1,3,0,0,3,12,4,2,1,6,11,4,0,1,0,0,0,0,1,0,0,0,3,0,0,0,1,0,0,2,0,0,0,0,0,0,0,0,0,0,0,0,0,0,0,0,0,0,0,0,0,0,0,0,0,0,0,0,0,0,0,0,0,0],"split_type":[0,0,0,0,0,0,0,0,0,0,0,0,0,0,0,0,0,0,0,0,0,0,0,0,0,0,0,0,0,0,0,0,0,0,0,0,0,0,0,0,0,0,0,0,0,0,0,0,0,0,0,0,0,0,0,0,0,0,0,0,0,0,0,0,0,0,0,0,0,0,0,0,0,0,0,0,0,0,0,0,0],"sum_hessian":[1E3,9.32E2,6.8E1,7.88E2,1.44E2,2E0,6.6E1,7.17E2,7.1E1,2E1,1.24E2,2E1,4.6E1,6.8E2,3.7E1,